/*This file is automatically generated from a Keras model*/

#ifdef HAVE_CONFIG_H
#include "config.h"
#endif

#include "rnn.h"
#include "rnn_data.h"

static const rnn_weight input_dense_weights[2688] = {
   -16, 14, -4, 48, 1, 3, 6, 10,
   59, -2, -39, -11, 17, 33, 37, -18,
   -36, -11, 43, 25, -12, 32, -64, 4,
   -24, 12, 30, -42, -7, -1, 26, -12,
   -11, -11, 0, 50, 24, 15, -11, -7,
   22, 21, 28, 31, 28, 51, -8, -72,
   4, 18, -11, 69, 4, -29, 30, -27,
   98, -17, -20, 5, -10, -15, 39, -8,
   -9, -38, -18, 42, -11, 22, -70, -30,
   -14, -6, 4, 4, 17, -1, 15, -20,
   25, 38, 1, 14, 18, 20, 33, -8,
   -17, 5, 17, 26, 8, 18, 35, 28,
   -9, -10, 15, -55, 18, 54, 27, 16,
   27, -34, 15, -48, 17, -14, -34, 21,
   15, 14, 1, -4, 41, 16, -35, -40,
   35, 15, -22, 42, 53, 31, -16, 4,
   33, 22, -22, 48, 1, 6, 45, 0,
   23, 19, 58, -24, 10, -63, -7, -46,
   68, -74, 127, -34, 89, 46, 58, 47,
   -29, -12, 43, 127, 25, -85, -79, 82,
   39, 9, 113, -45, 28, -68, -4, -30,
   -24, -86, -5, 33, 99, -36, -36, 30,
   127, 1, 4, -27, 13, 19, 1, 76,
   48, 44, -66, -40, 37, -30, 60, 28,
   59, -107, -91, 69, 7, 79, 20, 68,
   -82, 36, 42, -33, -8, -56, -51, 127,
   -28, -38, 84, -10, 97, -104, 127, -37,
   108, -52, 44, 41, 47, 103, -51, -42,
   -7, -6, -23, 122, -27, -91, 59, -29,
   -81, 5, -91, -82, 45, -42, 22, 70,
   0, -124, -28, -94, 52, -43, 5, 25,
   34, -109, 40, 74, -27, -12, -128, 50,
   65, 41, 100, -50, 94, -40, 48, -69,
   -31, -51, -9, 40, 25, 22, -30, -82,
   70, -5, 26, -61, -34, 32, -19, 112,
   18, -51, 21, -52, 2, 58, 86, 38,
   126, 64, -109, 41, -52, 11, -124, 81,
   76, -41, 61, 93, -30, 74, -128, 22,
   -98, 42, -68, 69, 82, -29, 50, -87,
   69, 84, 95, -81, 18, 127, -44, -86,
   -123, -47, 26, 108, -17, 0, 20, 54,
   -57, 47, -50, -125, 68, 51, 106, 95,
   48, -22, -66, -107, 45, 51, -110, 117,
   -103, -100, 38, 127, 49, -122, -31, 29,
   72, 59, 63, -98, 127, -106, -74, -127,
   -99, -127, -116, 45, -8, 49, -30, -100,
   92, 73, 24, 122, -69, 35, 27, 45,
   127, -128, -13, -12, -53, 3, -39, 2,
   -13, -125, -89, -19, -9, -7, -63, 127,
   -128, -9, 37, 19, 4, 116, -127, 3,
   125, 52, -79, 103, 5, 31, 66, -127,
   15, -9, 51, 127, -126, 127, -25, 13,
   -87, -78, -112, -25, -38, 62, 127, 91,
   19, -88, 9, -15, 85, -44, -61, 27,
   37, -38, 114, -72, 23, 46, -85, 127,
   -124, -82, -16, 90, 7, 61, -116, -110,
   19, 110, 125, -78, -7, 10, -42, -127,
   3, -127, -64, 38, 38, 75, -8, 104,
   17, -58, -11, -34, -12, 46, -3, -110,
   -5, -24, 101, -58, -5, -84, -128, -21,
   2, -128, -46, 54, 76, -114, 85, 127,
   43, -97, 96, -7, -4, -84, 73, -3,
   125, 77, -24, 84, 84, -127, -72, -123,
   -108, -35, 88, 80, -88, -1, 20, -127,
   117, -48, 4, -69, 7, -61, 96, 47,
   -128, -78, 0, 78, -111, -7, -115, 24,
   55, -30, -126, -127, 68, -92, -104, 23,
   60, 104, 39, -23, 38, -73, -128, 44,
   122, 63, 21, 126, 65, -111, -14, -128,
   10, -83, -92, -4, 52, -103, 36, -124,
   126, -50, -123, 33, 1, 52, 124, -128,
   93, -26, 126, -121, 126, -15, 70, -41,
   79, -43, -128, -64, -9, -128, 13, -23,
   -49, 3, -56, -62, 51, -1, -42, -124,
   113, -13, -82, -65, -3, 14, -73, -128,
   12, 60, 127, -128, -69, 20, 127, -128,
   -77, -17, 36, 97, -10, -4, 127, -75,
   -125, -87, -126, -21, -127, 82, -49, 15,
   54, -48, 14, 2, 9, 14, -84, 67,
   -125, -123, 24, 127, 36, -65, 29, 59,
   -113, -20, -4, 28, -122, 102, -86, 4,
   127, -65, -58, 38, -27, -19, 43, -126,
   -33, -128, 8, 17, -76, 19, 84, -121,
   -31, -64, -83, 79, 121, 127, -128, -42,
   121, 127, 62, -128, -15, -76, 123, -13,
   -128, 26, 38, -26, 58, -87, -128, -18,
   39, -9, -89, -35, -12, -42, 101, -83,
   127, -128, -64, -62, -109, 26, 43, -34,
   11, -22, -101, 31, -30, 96, 94, -47,
   -128, -64, -31, 13, 35, 13, -84, 125,
   117, -53, -57, 127, 114, -31, 16, 127,
   120, 66, 2, -114, 19, 20, 122, 36,
   44, -126, -74, 94, 32, 36, 42, -119,
   -88, -128, 14, -85, -52, 25, 1, 19,
   31, 43, -79, -15, 53, -18, -128, -22,
   50, -23, 24, 47, -23, -34, -43, 127,
   6, -128, 34, 100, 30, -126, 52, 62,
   127, 94, -121, -67, -79, 38, 127, -12,
   -82, -12, 126, -118, 61, 47, -57, -18,
   66, -128, -14, 2, 88, 2, 64, -24,
   -72, -42, -93, -123, 77, -124, 21, -117,
   33, -47, 127, -45, -39, -111, -86, 57,
   -102, -126, -84, 10, 40, -117, 7, 68,
   -111, 127, 51, 32, 32, 51, -44, 99,
   -128, 37, 127, 98, 82, -120, 55, 98,
   -23, -128, 17, 116, -42, 119, 26, 127,
   -74, 92, -7, 54, -12, -112, 115, 120,
   -122, -19, -69, 69, 126, -112, 126, 20,
   -126, -70, -20, 107, -91, 127, 125, 26,
   28, 11, -57, 9, 29, 63, 68, -57,
   69, -24, 77, 68, -127, 97, 15, 7,
   -14, -77, 59, 30, -95, 79, 72, -82,
   -37, -53, -27, 107, 26, 96, 30, -83,
   67, -51, -25, 41, -23, 77, -109, 3,
   -102, -91, -45, -17, -51, -127, 60, 2,
   126, 71, -30, -30, 20, 87, 26, -26,
   125, 39, 54, 118, 58, -8, -6, 23,
   18, -106, -125, 75, -27, 41, 54, -25,
   113, -6, -57, -124, 22, 44, 42, 0,
   -38, -31, -34, 46, -73, 30, 44, -39,
   -78, -9, -32, -26, 26, -12, 58, 21,
   62, -31, 42, -41, -2, -60, -71, -31,
   63, -4, 19, 12, 10, 25, -2, -15,
   -14, 20, -14, -51, 56, -100, 15, 127,
   100, -45, -54, -119, 20, 93, 50, 54,
   96, 47, 65, -15, -13, -35, -86, -26,
   -79, -21, -14, 43, -51, 61, 92, 44,
   -5, 18, -56, -25, 6, -45, -15, -71,
   70, 5, 71, -28, -64, -33, 36, 89,
   1, -72, -15, -21, -84, 14, -4, -16,
   -38, 18, -75, -46, 13, -11, 36, -72,
   69, 2, 23, 95, -29, -39, -74, -22,
   78, -22, 126, 84, -101, 2, 76, -73,
   -10, -99, -36, -99, -3, 51, 30, -1,
   69, 22, 18, -12, -50, 104, 90, -2,
   -9, 113, -22, 2, -86, 43, -58, 29,
   28, 127, -91, 78, 0, 77, -2, -66,
   54, 12, 41, 57, 0, -99, 22, -35,
   12, 79, -28, 46, 22, -58, 78, 48,
   15, -2, 33, -6, 7, -60, 11, -5,
   -59, 14, -6, -73, 7, 25, -29, 79,
   69, -125, 127, 36, 33, 9, -65, -51,
   23, -66, -3, 65, -8, 9, 4, -89,
   -28, 60, 1, -44, -106, -127, 61, -8,
   -1, -71, -80, 11, 26, 24, 64, 37,
   23, 29, 43, 32, 71, -103, -37, 34,
   62, -20, -42, -8, -30, -38, 51, -24,
   57, -21, -69, 8, 8, 87, 35, -1,
   -1, 36, -14, 106, 15, -45, -72, 61,
   97, -1, 25, -31, 5, 13, 45, -16,
   124, 127, 116, 96, 123, 8, -41, 43,
   31, 99, 22, 1, 1, 30, 56, 2,
   16, -9, 17, 72, -14, 61, -73, 76,
   -128, 3, -5, 26, -36, 17, 7, 10,
   19, 5, 16, 22, -36, -38, 21, 8,
   -31, -33, 109, -125, -2, -79, 95, -53,
   -103, 50, -104, 34, -46, -15, -68, -116,
   8, -55, -37, -84, -8, 99, 3, -32,
   -57, -12, -111, 99, -30, 81, -66, -5,
   -43, 32, 61, -6, -2, -100, -11, 7,
   71, 18, 77, 9, 13, 16, 48, -17,
   100, 8, -51, -62, 79, -16, -1, 124,
   15, -85, -128, 112, -85, 60, 65, 104,
   -83, 46, -39, 90, 127, -26, -77, -63,
   123, -128, 30, 47, -122, 10, 37, -29,
   31, 45, 26, -15, -26, 28, 73, 7,
   46, 15, 6, -25, 1, 54, -18, 6,
   -41, 3, 3, 9, -20, -3, -16, 82,
   23, -23, -6, -34, -3, 3, 5, 1,
   3, 38, 42, 13, 1, -37, -15, -7,
   41, -2, -14, 6, 28, -19, 39, -7,
   -18, -5, -5, 31, -10, -1, -14, -6,
   11, 38, 14, -18, -2, -27, 20, -15,
   -17, 13, 7, -10, 19, -23, -33, 19,
   30, -10, 4, -15, 0, -3, 2, -3,
   -9, 52, 24, 2, -3, 35, 9, -8,
   18, -4, 5, -5, 10, -17, 38, 6,
   22, 29, 7, 20, 1, 1, -7, -12,
   18, 37, 15, 6, 7, -30, -20, -3,
   30, 5, -25, 14, 24, -1, -41, -5,
   -29, -42, -13, -48, 5, 3, 1, -9,
   -15, -2, -24, -37, -6, 0, 21, -25,
   -28, -8, -3, -10, 2, 21, 57, 8,
   -56, 27, 3, 46, -7, -32, -10, -5,
   -17, -25, 19, 16, 2, 7, 18, -15,
   -52, 14, -39, -2, 17, 32, 24, 21,
   -55, -20, -26, -82, 45, 52, -4, 11,
   1, -6, -52, 24, -18, 13, -48, 31,
   21, -55, 7, 24, -68, -9, -13, 104,
   4, -87, -20, -16, -9, -10, 1, -35,
   -14, -115, -18, 44, 3, 24, 51, -38,
   27, 65, -104, 2, -31, -9, 40, 18,
   -24, -111, -8, -30, -10, 41, 7, 123,
   24, -35, -6, 81, 8, 61, -25, -61,
   -22, -9, -105, -3, -48, -34, 122, -26,
   44, -55, -121, 36, 30, 79, 45, -39,
   -121, 18, 9, -18, -18, 7, 41, 93,
   0, 19, -5, 4, -78, -5, 51, 80,
   6, -113, -31, 33, -5, 18, -40, 20,
   16, -19, -108, 127, 48, 30, -81, -74,
   -23, 12, -43, -25, -27, 43, 11, -5,
   48, -108, 39, -43, -7, 0, 9, -31,
   -28, -58, -33, -17, -9, -11, -27, 64,
   65, -9, 73, -33, -52, 34, 42, 78,
   53, 81, -109, -82, 24, -55, 23, 25,
   -23, -119, -59, -71, 2, 57, 70, -67,
   -70, 32, -46, 34, -128, 19, -27, -71,
   13, 5, 46, -22, 17, 112, -15, -124,
   -63, -107, -18, -57, -22, -12, 127, 3,
   -11, -23, -36, -2, 62, -1, 17, 81,
   -26, -80, 112, -49, 2, -2, 21, -24,
   -59, -63, -87, 116, 62, 49, -33, 46,
   23, 73, -24, -45, -49, -8, 84, 105,
   44, 9, -99, -4, 84, -103, 23, -46,
   0, 55, 52, 76, 0, -85, 16, 73,
   60, -20, 126, 38, 18, -13, 44, -82,
   0, -29, 19, -97, -11, 94, -71, 7,
   44, 106, -47, 30, 36, -37, -127, 71,
   -42, -14, 13, 72, -44, -56, 20, 27,
   59, 35, 90, 70, -24, 29, 81, 127,
   58, -20, 80, -27, -63, -127, 127, 26,
   127, 22, -47, 51, -63, -105, -128, 14,
   -41, -126, -1, -64, 12, 127, -82, 18,
   -72, -69, -128, 79, 68, 23, -128, 3,
   -8, -15, -75, -28, -25, -43, 41, 89,
   -127, -128, 119, -64, 20, -18, -101, 3,
   11, 50, 50, 106, -38, -105, 114, -128,
   44, 47, 127, -53, 54, 60, 127, 121,
   -59, 69, 127, -69, -30, -17, 21, 60,
   32, -73, -26, 96, 12, -55, -12, -73,
   -15, 18, -50, 12, -51, -81, 127, 17,
   127, 34, 127, -10, -68, 43, -105, -51,
   124, 58, -10, 57, -26, -2, -64, 53,
   31, -45, -55, -9, -26, 77, 15, 48,
   -19, -127, 118, 2, -40, 127, -83, -95,
   -9, 122, -22, 127, 10, 125, -28, 21,
   -97, -29, 8, 91, -106, 32, 40, -33,
   -77, -69, -17, -21, 36, 28, -60, -66,
   56, 22, 85, 94, 10, -96, 127, -127,
   107, 48, -83, -119, -45, 30, 126, 7,
   -53, 60, -40, -77, 4, 36, 6, -7,
   29, 87, -97, 80, 89, 50, 46, -120,
   -47, -11, 48, -97, 122, -7, 118, 65,
   127, 124, 85, -102, -86, 7, -63, -128,
   53, -63, 116, 11, -50, -126, -7, -22,
   7, 113, 91, 5, 11, -70, 81, 57,
   -43, 127, 4, -69, -66, 50, -43, 52,
   -29, -42, 4, 127, 10, 17, -128, -79,
   -3, -51, -102, 95, -2, 17, 77, 95,
   31, 27, 26, -108, -37, -9, -14, -117,
   -41, 115, -20, -16, -70, -128, 112, -73,
   127, 19, 50, -55, 93, 16, -107, 19,
   2, -110, -120, -105, 15, -16, 9, 41,
   87, -15, -105, 61, 123, -128, -77, -39,
   6, 112, 44, -47, 54, 4, 41, 126,
   18, -60, -48, -93, 12, 75, -37, -126,
   120, 57, 126, -19, -82, 102, -31, -128,
   -32, -37, 30, -45, 124, -53, 127, 107,
   -38, 22, 9, 4, -67, 123, -44, -125,
   123, -22, 28, -75, 25, 97, 48, 44,
   -8, -3, -119, 59, 121, 127, 127, 127,
   -30, -83, 101, -125, -25, 127, -101, -36,
   -128, -44, 5, -20, -18, -83, -126, 109,
   106, 48, 46, 72, -19, -16, 3, 69,
   -24, -125, 63, -116, -75, 127, 24, -128,
   57, 7, 70, 126, -72, -128, 42, -128,
   113, -126, 64, -102, 121, 0, 72, 127,
   -10, 51, -128, 49, 122, 53, 63, -128,
   116, -88, 108, -99, 53, 49, 41, -94,
   121, 65, 122, -58, 58, -36, -77, 69,
   -22, 63, -39, 99, -65, 127, -104, -128,
   26, -75, 127, 94, -32, -66, 85, -13,
   32, -43, -128, -53, 56, -122, 85, 57,
   127, 2, -108, 79, -127, 35, -79, -11,
   -106, -75, 126, 32, -30, -71, 2, 125,
   32, 34, -113, 95, -75, 125, -44, 125,
   -47, 9, 53, -26, 13, -14, 16, 19,
   -29, -76, -14, 3, 6, 78, 19, 24,
   -34, -3, -27, -14, -85, 37, 49, -6,
   -23, -37, 57, 24, 26, -4, 1, 35,
   40, -65, -9, -36, -7, 43, -27, -18,
   43, 3, 10, 14, -66, 34, -44, 19,
   47, -37, -21, 57, -28, -17, -28, -52,
   13, -85, -8, 39, 2, -69, -31, 33,
   -35, -41, 7, -3, 13, 94, -1, -27,
   -18, -107, 27, 18, 63, -29, 27, 26,
   -28, -16, 0, -47, 4, 123, 44, -32,
   21, -6, -6, -6, -100, 9, -55, 28,
   -66, 94, 124, 24, 10, -9, -19, 74,
   -5, -27, 26, 17, -22, -124, -12, 25,
   -74, -69, -30, 22, -12, 16, 113, -85,
   0, -8, 66, 68, -60, 2, 30, 91,
   11, 107, 17, -103, -13, 21, -98, -41,
   13, 25, 11, 6, -91, -7, 5, -59,
   62, 20, -21, 44, 9, 4, 6, 16,
   -86, 33, 11, 29, 4, -18, -22, 24,
   1, -30, -16, 6, 100, 29, 32, -2,
   -15, -33, -14, 42, -14, -23, -10, 17,
   -51, -128, -15, -3, -15, 10, 29, 66,
   20, -15, 89, -2, 110, -22, 40, 52,
   -20, -91, -2, 46, -26, -13, -12, 57,
   56, -46, -37, -1, -2, 45, -6, 31,
   54, -51, 74, -40, 109, -21, -64, 15,
   21, -33, 23, 74, 11, -80, 7, 36,
   12, -62, -99, -46, -26, 17, -4, 30,
   99, -71, -6, 8, 23, 29, 74, -81,
   -12, -21, 8, -17, 14, -48, -21, -81,
   14, -9, -1, 43, 7, 96, 74, -35,
   -128, -58, -68, 35, 88, 35, 81, -10,
   110, 109, -6, -21, -27, 39, 25, 23,
   -63, -25, -67, -81, -12, -18, -58, -82,
   -14, -58, 63, -44, 78, -4, 98, -95,
   57, -20, -34, 58, 22, 46, 34, 16,
   3, 27, 34, 51, 72, -5, -96, 10,
   21, -62, 32, 12, 5, -71, 59, -9,
   4, -5, -22, 8, 2, 4, 6, 52,
   -62, 35, -2, 40, 9, -67, -96, -11,
   17, -6, -15, 15, 53, 30, -17, -10,
   -79, 88, 69, 14, 0, -76, -20, -37,
   40, -75, -26, -76, -57, 64, 127, 13,
   58, -49, -26, -15, 76, 43, -18, 12,
   25, 11, 41, 25, -9, 25, -4, 37,
   18, 47, -13, 75, -28, 58, 103, 28,
   28, 14, 97, -17, 78, -57, 61, 2,
   -31, 3, 20, 114, 30, 44, 7, 118,
   91, 63, -34, -104, 49, -18, -20, 13,
   42, 92, -45, 27, -122, -82, -58, 7,
   -20, -1, 10, -79, 33, -128, -51, -93,
   127, -127, -55, 88, 15, 73, 53, -100,
   -124, 14, 101, -87, -19, -29, 56, 3,
   16, -78, -128, 67, -80, 84, 38, 50,
   -63, 18, -55, 102, 127, 2, -128, -55,
   124, -128, 71, 40, -108, -88, 63, -3,
   -21, 65, 77, -27, -9, 3, -7, -36,
   27, 25, -4, -34, -1, 4, 11, -6,
   33, -5, -38, 3, 47, -3, -19, 9
};

static const rnn_weight input_dense_bias[24] = {
   -38, 98, 127, -86, 80, -68, -89, -64,
   105, -20, 49, -79, -128, 47, 127, 49,
   -124, 127, -57, -55, 81, 39, -53, -2
};

static const DenseLayer input_dense = {
   input_dense_bias,
   input_dense_weights,
   112, 24, ACTIVATION_TANH
};

static const rnn_weight vad_gru_weights[2304] = {
   -4, -8, -20, -99, 108, 126, 59, 77,
   23, -128, -53, 7, -31, -24, 2, 126,
   8, 6, 43, 80, 38, 10, 103, -66,
   66, -30, -2, 24, -7, 92, -89, 14,
   13, 41, -2, -69, 75, 11, 7, 89,
   -22, -55, -17, -13, -44, -52, -49, -47,
   44, -83, -55, -3, -78, -95, 68, 22,
   -24, -23, 7, -1, -38, -30, -34, -27,
   68, -48, -53, 33, -32, -39, -11, -23,
   -6, -18, -58, 80, 10, 35, 11, -24,
   47, 6, 74, -9, 11, 13, -7, 41,
   22, -26, 26, 69, 84, 38, 32, -19,
   61, -34, -34, -41, -6, -84, 47, 87,
   127, 94, 126, 127, 76, 73, 126, -108,
   32, -4, 20, -70, -13, -19, -52, -52,
   72, 17, 101, -15, -63, 103, 122, 52,
   68, 6, 6, -18, -5, -40, -52, -32,
   42, 70, 18, 34, 5, -16, -39, -39,
   -13, 45, 36, -30, -13, -45, 4, 51,
   43, 45, -9, 1, 17, 50, 48, 60,
   -37, -33, -58, -35, -25, 69, 51, -6,
   -9, 68, -3, -23, -33, 38, 16, 38,
   36, -32, -79, 40, -60, -38, 58, 61,
   49, -32, -24, 43, 49, -13, 50, -60,
   14, 2, -20, -38, -70, -14, -10, 105,
   126, 75, 125, 127, -4, 102, 37, -126,
   94, 77, 81, 27, 6, -77, -18, -53,
   92, -127, 126, -51, -101, 107, 63, 63,
   55, 85, -23, -17, 32, -15, -15, -28,
   45, -16, 10, -23, -8, 38, 5, 4,
   66, 40, 30, 76, 3, 61, 33, 11,
   50, 103, 35, -48, 56, 13, 37, 41,
   77, -83, -45, 2, 29, -4, -15, -8,
   41, 56, -4, -67, 72, -3, -4, 9,
   87, 14, 5, 28, -13, 51, 22, 42,
   58, 71, 16, 27, 64, -32, 54, -86,
   70, 50, 5, -2, -42, -53, 48, -67,
   7, -54, 38, 22, 10, 82, -9, 127,
   68, 61, 29, 27, 91, 10, -44, 77,
   -76, -40, -111, -69, 127, -13, 7, -85,
   -59, 63, 94, 87, -25, -18, 82, -124,
   94, -23, 36, 22, 12, 15, 55, 15,
   28, 51, -82, 123, -79, 41, -6, 87,
   0, 109, -27, 126, -66, 42, 54, 25,
   50, 22, 25, 62, 0, -67, -14, 5,
   18, 11, -2, 22, -77, -21, 12, -11,
   37, 17, -49, -14, 14, 11, -38, 28,
   65, -2, -39, -32, -26, 26, -43, 38,
   1, 0, -25, -30, -49, 23, 62, -62,
   -45, -10, -126, 85, 14, 3, 127, 127,
   -36, -51, 16, -104, -26, 52, 27, 76,
   -12, -37, 88, 18, -87, 31, -76, 35,
   -2, -12, -93, 31, -23, -128, -33, 35,
   95, 4, 127, 23, -7, 108, -30, 37,
   -128, 31, -99, -58, -63, -18, -21, 93,
   -22, -6, -15, 14, -41, -17, -72, -90,
   -49, 15, -70, 55, -23, 65, -12, -33,
   11, 0, -22, -33, 40, -42, 4, 76,
   42, 11, -18, 35, -40, 36, 18, 28,
   -54, 70, -43, 68, 40, 62, -7, 5,
   -4, 87, -8, 16, 0, 110, -26, 45,
   -32, 21, -19, -1, 54, 85, -5, -128,
   10, 127, -9, -58, -95, -37, -42, 0,
   115, -52, 14, 127, 82, -62, -25, -57,
   -99, -13, 24, 18, -40, -72, -56, 73,
   86, -59, -45, -78, -76, -65, 10, -84,
   -22, 99, 20, 36, -77, -55, -96, 3,
   -7, -64, -91, 31, -81, -15, -50, -11,
   -3, 62, 84, -54, 57, -4, -86, 51,
   15, -65, -91, -37, -28, 28, 72, 45,
   49, -5, 14, -49, -46, -6, 6, -59,
   4, 38, 59, -16, -60, -3, 48, -9,
   61, -94, -6, 82, 40, -20, 58, 10,
   16, 35, -9, 79, -34, 35, 44, -86,
   27, 65, -13, 51, -81, -46, 25, -83,
   65, 23, -70, 97, -15, 11, -40, -48,
   -88, -38, -2, -11, 11, 73, 22, 77,
   53, 62, -105, -22, -20, -12, 62, -68,
   77, 31, -38, 2, 78, -53, 71, -47,
   -53, 63, 39, 84, 14, -31, 81, -56,
   4, 16, 86, -48, -23, -77, 62, 29,
   0, 8, 32, 58, -42, 3, -5, -127,
   -35, -13, -69, 14, -21, -87, -13, -44,
   46, -56, -49, -84, 9, -53, 7, 48,
   -127, 125, -46, 107, 57, -83, 24, 26,
   -127, -62, -57, -78, 26, -23, -35, -82,
   -9, -61, -126, 98, -43, 12, -33, 29,
   48, 45, -101, 127, 34, 67, -81, -24,
   88, -77, -89, -85, -111, 63, -62, -70,
   -20, 0, -12, -64, 5, 28, 33, -33,
   2, 45, 31, 6, -33, -128, 65, -47,
   -18, -26, -4, -3, -108, 101, 13, -51,
   -17, -26, -8, -66, 50, -27, -35, 22,
   -29, -54, -15, 53, 9, 24, 14, -128,
   3, 54, -55, 59, -5, 27, -36, 37,
   -23, 58, -47, -15, 56, 77, -20, -42,
   -44, 112, -32, 106, 26, 7, 106, -59,
   60, 79, 35, -93, 69, 48, 41, 60,
   -14, 57, 70, 1, 38, 100, 19, 127,
   12, 81, -13, 77, -26, -6, -54, -27,
   55, 127, -96, -2, -89, -81, 11, 52,
   65, -59, 42, 25, -75, -33, 87, 27,
   -119, 79, -44, 10, -2, -127, 44, 35,
   -23, 75, 66, 24, 69, -82, 74, -11,
   -26, 36, -17, -16, -15, 45, 83, 11,
   12, -59, -59, -19, 15, 20, -40, -30,
   -11, -29, 19, 52, 14, 31, -7, 10,
   22, 45, 49, -9, 1, 21, 65, -20,
   32, 42, 97, -112, 116, 21, 74, 34,
   8, -1, 29, -30, 71, -38, -118, -50,
   53, -42, 73, 79, -51, -22, 17, 76,
   47, -9, -6, -77, 107, -41, -1, -6,
   -15, 121, 97, -14, -25, -42, 27, 127,
   -13, 4, -56, 74, 36, -128, -95, -109,
   36, 9, 36, -120, -23, -75, -77, -125,
   -11, -68, -37, -65, 124, -74, 51, -62,
   49, 43, -90, -39, 41, -79, 61, 112,
   -17, 6, -39, -72, 41, 49, -28, 18,
   24, 34, 95, -23, 8, 6, -77, 21,
   22, -8, 4, -44, 22, 7, 37, 42,
   77, -8, 7, -61, -33, 127, 92, 21,
   13, -120, -6, -22, 26, -50, 127, -44,
   -20, 111, 72, 21, -27, 69, 57, -5,
   97, 45, -64, 49, 81, 3, -44, 97,
   4, 68, 32, -47, -29, 36, 21, 127,
   54, 52, -45, -31, -45, -68, -32, 0,
   89, -2, 38, -115, 0, -63, -20, -16,
   25, -43, 0, 16, 22, -7, 47, -43,
   31, -31, 24, -57, -53, -22, -15, 51,
   39, -42, -15, -47, 94, 6, 24, 98,
   -7, -56, 56, -61, 8, -27, 69, -43,
   17, 53, 110, -37, 78, -33, 15, -4,
   19, 43, 27, 25, -127, 118, 5, -1,
   -121, -121, -76, -73, 15, -35, -6, -70,
   7, 48, 64, 25, 100, 5, 23, -97,
   -70, -2, 42, -1, 105, -127, 39, 56,
   23, -28, -35, 13, -49, 21, 54, 15,
   -21, -45, -5, -63, -97, 67, -36, -124,
   45, -28, 61, -33, 60, 88, -7, 18,
   -15, -44, -110, 65, 4, -90, -97, -48,
   -56, -52, -27, -65, -3, -36, 10, -43,
   5, -23, 54, -40, -30, -23, -54, -5,
   -31, 72, 31, -70, -9, 10, -66, -17,
   -37, -24, 48, -64, -83, -56, -27, -68,
   -98, 55, -14, 19, 64, -20, 12, 1,
   52, -82, 68, -125, -8, 40, -32, -127,
   -58, 62, -62, 127, 11, 99, 100, 36,
   -28, 119, -20, -63, 28, -13, -116, -59,
   14, -38, 19, -20, -128, -85, 50, 77,
   -27, -21, 65, -115, 10, 119, 74, -21,
   16, 93, -14, 65, 35, -127, -72, 65,
   -43, -36, -47, -25, 33, 43, 43, -70,
   94, -10, 54, -20, -13, 19, -9, -47,
   -14, 25, 16, -43, -86, 35, 42, -93,
   -12, -36, -13, -89, 49, -127, -127, -31,
   30, -38, 8, 20, -18, 25, 25, 57,
   -38, -112, -123, 19, -41, -103, 27, 12,
   127, 124, 95, 73, 23, 61, 89, -15,
   -5, 64, -6, 5, 50, -28, -30, 63,
   77, 79, 33, 70, -29, 6, -14, 23,
   -77, -2, -61, 4, 54, -15, 32, -114,
   27, 3, 2, -21, 91, -42, -15, 113,
   7, 54, -30, 56, 3, 107, 9, 30,
   -10, 125, 59, -70, -14, 8, -53, 10,
   -31, -19, 30, -1, 16, -15, 27, -57,
   22, 62, -25, -39, -16, -50, -18, 20,
   -77, 53, -78, 0, -34, 1, -31, -60,
   -3, 27, -7, 21, -28, -34, 32, 28,
   -32, -50, 45, -48, 63, -91, 6, -4,
   33, 127, 29, 20, 17, 42, 52, 87,
   9, 39, -82, -127, -9, -6, -30, -86,
   -43, 37, 127, -98, -32, 0, -5, -91,
   99, 109, 3, 21, 12, 77, -17, -33,
   97, -32, 28, 60, 40, -28, -12, 76,
   8, -5, -20, -71, 81, 30, 51, 127,
   39, 112, 93, 91, 74, -25, 37, 40,
   -3, 46, 21, -10, 61, 31, -16, -51,
   -42, 126, -16, 9, -33, -1, -50, -39,
   15, -7, -23, -20, -23, 36, -2, -1,
   63, -1, 79, 6, 1, 75, 41, 32,
   -28, -44, -21, -63, -17, 8, -30, -42,
   35, -25, -81, 115, -125, -82, 80, -82,
   8, -40, -11, -69, -33, 127, 53, 1,
   -58, -71, 123, 17, -93, 19, -66, 63,
   44, -72, -52, 60, 106, -36, -45, 21,
   -28, -9, -47, 70, 66, 110, -57, 25,
   -23, -44, -2, 8, -95, 91, 31, -76,
   -10, -17, 16, -102, -127, 49, -67, 67,
   -50, -84, -11, 77, -7, -22, -50, -21,
   25, 8, -45, 39, -30, -31, 34, 41,
   14, 8, 0, 65, -57, 96, 81, -52,
   26, 31, 8, -1, -29, 8, -57, -52,
   53, 75, 127, 67, -37, 94, 12, 59,
   -125, -127, -97, -126, 84, -31, -21, -50,
   -68, -75, 40, 40, 0, -112, 80, -56,
   24, 127, -70, 84, 113, 2, -74, 122,
   -3, 33, -51, -35, 12, -39, 62, 52,
   41, 10, -69, -9, -17, -22, -33, -24,
   -29, 2, -2, -21, -31, -82, 14, 36,
   31, -39, -44, -6, 8, 53, -19, -123,
   -83, 45, 16, 69, 22, 5, -18, -40,
   0, -101, 28, 27, -6, -43, 34, -68,
   77, -30, 3, -29, 1, -6, 8, 30,
   11, -4, 14, -75, -45, -22, 74, -40,
   29, -123, 90, 44, -90, -17, -26, 6,
   -12, 111, 49, 98, 65, -43, -60, -113,
   48, -92, 127, 64, 1, -7, -17, 106,
   -31, 56, 17, 16, -104, 94, 126, 18,
   18, 12, 15, 73, 127, 66, -45, -43,
   -29, 25, -62, 31, 64, 64, -65, 78,
   -9, 1, -31, 13, -29, 127, 38, 39,
   16, 44, 31, 65, 90, 127, 50, 3,
   -21, -5, -50, -38, -4, 41, -12, -62,
   31, -27, -9, 35, 34, -29, -21, 36,
   -27, -55, 51, 89, 9, 22, 94, -36,
   -8, -15, 21, 28, 28, 6, -45, -77,
   33, 124, -1, 69, -126, 59, 78, -108,
   -40, -4, 76, 127, -31, 9, -2, -9,
   27, -41, 56, -42, 26, -27, 36, -36,
   38, 46, 10, 69, -14, 77, -10, -89,
   14, 35, -127, 24, -28, -84, -16, 5,
   29, -16, -5, 60, -15, -96, 90, -81,
   -9, -82, 27, 70, 96, -79, 104, 124,
   65, 13, -44, 87, -30, 12, 32, 23,
   66, 71, 66, -66, 50, -39, 73, -46,
   -11, -38, 23, 79, -32, -50, -37, 21,
   54, 75, 53, -50, 17, -4, -105, 68,
   -58, 48, -1, -17, 32, 43, 2, -15,
   18, 105, -46, 82, -125, 8, 59, -14,
   -24, 93, 31, 15, -25, 100, -10, 69,
   28, -45, 83, 127, 21, -124, 13, 30,
   18, 25, 37, 11, -17, 8, -125, -38,
   -50, 127, -29, 71, -20, -84, 64, 110,
   117, -20, -21, 33, -2, -21, 56, -65,
   2, 127, 44, 26, 58, -7, 48, 60,
   3, 126, -21, 65, 59, 15, 35, -61,
   -2, 5, 17, -64, 86, -79, 64, -32,
   31, 40, 63, 7, -14, 18, -20, -42,
   -32, 48, -57, -17, 10, 24, -6, 23,
   -11, -57, -12, -42, -66, -49, 33, -42,
   57, -10, -1, -84, -4, 101, 64, 127,
   -35, 10, 41, 119, 1, 62, -48, 120,
   -90, 53, 53, 66, 21, 19, 127, 8,
   -5, -58, 68, -118, -121, 34, 13, 107,
   126, 15, 63, -43, 74, 98, -90, 8,
   76, 18, -8, 81, 13, -86, 25, -83,
   27, 17, 48, -35, 114, 11, 52, 25,
   35, -8, 10, -30, -4, 95, 18, -66,
   15, 5, -68, 64, 21, -24, 22, 55,
   57, 18, 23, 10, 13, 97, -51, 41,
   -17, -26, -26, -23, -54, -24, -5, -38,
   36, -7, -19, 30, 11, 68, 34, -62,
   -26, -17, -108, -7, -101, 96, 126, -124,
   33, 102, 33, 89, 50, 75, 124, -2,
   8, 70, 122, 56, 22, -32, -29, 37,
   10, 97, 38, 9, -36, -81, -98, -125,
   44, 101, -29, 58, -49, -44, 16, -55,
   71, 34, 21, -4, 5, 1, 55, -71,
   20, -9, 27, -52, 77, 17, 71, 60,
   85, 15, 64, -31, -48, -68, -44, 10,
   -37, 19, 21, 16, -9, -60, 90, -9,
   4, 73, 23, -49, -21, -46, 18, 58,
   -11, 49, 15, 43, 36, -3, -41, -35,
   24, -58, -18, -49, -46, 35, -39, 6,
   51, 24, 30, 95, -34, 71, -92, 86,
   -127, -111, 79, -49, -26, -48, -80, -83,
   -51, -101, -35, 120, -66, -1, -3, -66,
   -61, 2, -55, 22, 65, 57, -36, -38,
   -93, 9, -11, 4, 14, -10, 35, -38,
   -63, 2, 80, -36, -95, 55, -53, -35,
   -3, 18, -14, 47, 2, -24, -89, -39,
   -67, 10, -64, -41, 37, 23, -6, 3,
   3, 28, 40, -11, 37, -24, -46, 29,
   21, 42, -37, -24, -56, -18, 0, -45,
   -25, -76, -76, 25, -39, 43, 38, -62,
   1, -24, 31, -8, 24, -50, -58, 54,
   -29, 46, 42, 24, 127, 21, 14, 15,
   -12, 76, 3, 110, -128, -44, -54, 1,
   94, 4, -62, -111, -101, -84, 1, 11,
   -30, 75, 64, 127, 75, -79, 61, 35,
   -86, -41, -37, 27, 32, -75, 5, -12,
   -5, 17, -38, -6, -15, -88, -29, 61,
   56, -40, -53, -5, -106, -78, -118, -7,
   -70, 11, 46, -6, 44, -61, 22, 44,
   -35, 4, -40, -19, -11, -76, 32, 32,
   -5, -23, 15, 2, -30, 3, -41, 30,
   -2, -28, -43, 40, -46, -43, 17, 3,
   -35, -2, 26, 0, -108, -40, -3, 74
};

static const rnn_weight vad_gru_recurrent_weights[3072] = {
   -36, 55, 120, -127, 98, 27, 1, 124,
   5, -127, 54, -46, -97, 50, -117, -19,
   58, -27, -23, 107, 84, 70, 123, -40,
   -99, -4, 46, 73, 124, 26, 30, 0,
   21, 104, 68, -55, -125, -26, 72, 3,
   -113, 19, 67, -121, 94, 36, 51, 42,
   46, 30, 13, 79, -4, -41, -71, 36,
   -119, -7, -100, 44, 99, 101, 45, 53,
   36, -90, 4, 127, -59, 42, -97, 46,
   4, 4, 51, -39, 53, 95, 44, 122,
   -65, -31, -18, 71, -115, 49, 41, 28,
   -30, 41, 46, 127, -18, 54, -42, -34,
   32, -20, 25, 48, -57, 84, 84, -43,
   -72, -20, -14, 54, 7, -27, -77, -115,
   13, -70, 51, 113, 62, -93, 125, 34,
   -39, 37, 6, 82, -60, -45, -14, -65,
   -70, -53, 108, -51, 39, 37, -57, -47,
   34, 69, -86, 82, -14, -51, -49, -5,
   -63, -58, -96, 10, 29, 28, -11, 127,
   -49, -60, 35, -24, -17, -28, 114, -28,
   -55, -26, -45, -35, -35, -13, 33, 94,
   10, -57, -79, 71, 3, -94, -89, 62,
   -30, 48, -19, 66, 68, 6, 81, -5,
   37, -43, -116, 23, 55, -88, -9, -25,
   -17, -24, -48, -21, -16, 63, -23, -62,
   -62, -57, -13, 3, -124, -65, -22, 27,
   8, -90, -103, 124, -16, -114, -105, -58,
   -83, -1, -95, -33, 12, -82, 39, -10,
   -64, -85, -23, 3, -44, -89, 10, -94,
   30, -80, -34, -25, -35, 42, 6, 97,
   -67, 14, -78, -12, -82, 69, 11, -6,
   -28, -48, -18, 7, -60, 26, 7, -70,
   -103, -43, 58, -29, -67, -71, -32, -121,
   0, -40, -11, 46, -92, -127, -32, 19,
   24, -29, -41, 60, 59, 0, 73, -69,
   -27, -36, 9, -87, -11, -55, -66, 32,
   -102, 55, 36, 60, 32, -110, -18, -127,
   127, -127, -128, -127, -69, -3, 31, 107,
   37, 87, 17, -44, 2, 127, -52, -63,
   -17, 70, -39, -5, 122, 38, 19, 23,
   -39, 20, -52, -45, -49, -30, -39, -19,
   19, -20, 51, -58, 44, 71, 33, -36,
   38, 3, -36, -44, -28, -26, -17, 37,
   -66, -50, 8, 4, -62, 48, -29, -11,
   -67, -12, 21, 120, -60, 9, 25, 32,
   -6, -45, -39, -1, -22, 42, 117, -39,
   -108, -69, -11, 15, -42, 27, -17, 48,
   -121, -11, 8, 13, 16, 63, -17, 1,
   -76, -97, 127, 53, -31, 9, 72, -124,
   -91, 23, -38, 123, -58, 29, -55, -67,
   -61, 17, -66, -77, 81, 95, 112, -78,
   12, 117, 114, 99, 107, -14, -81, 110,
   24, 6, 81, -14, -21, 42, 97, 15,
   48, 30, -45, 29, -16, -68, 21, -114,
   -34, -15, 101, 12, 8, -60, 62, -41,
   127, -7, -124, -127, -11, 37, -18, 17,
   115, -1, 0, -6, 70, -107, -4, -74,
   97, -98, 46, -28, -83, 126, 86, -26,
   42, -23, 42, -69, -34, -126, 86, -78,
   41, -38, 85, 102, 4, 28, -31, 55,
   38, 12, -62, 2, -97, 2, -126, 126,
   123, 43, 125, -85, 58, -42, 21, -9,
   97, -12, -127, -11, -12, 16, -14, 63,
   42, -125, 104, -38, -101, 79, 118, -81,
   62, 10, -58, -34, -27, 24, -48, 37,
   59, 18, 125, -9, 6, 71, 3, 59,
   -12, -8, 24, -14, -10, 15, 54, 31,
   -52, 1, 105, 102, 12, 116, 66, 32,
   -41, 13, 79, 12, -77, 26, -43, -26,
   -85, -33, -7, 58, 33, -58, 39, -50,
   -90, 42, 32, 28, 44, 67, -38, 77,
   -10, -9, -62, -32, -40, -22, -25, -67,
   53, -64, 62, 61, -118, -49, -35, -27,
   29, 72, 7, 92, -49, -73, -127, -72,
   -93, -69, -2, 93, 29, 85, 109, -56,
   49, -118, 5, -41, -103, 13, 47, -45,
   -13, 54, -36, 57, 32, -28, -18, -73,
   -18, 19, 17, 85, -6, 43, 14, 18,
   -72, -63, -27, -24, 12, 26, 26, -12,
   -91, 36, 67, 30, -29, -81, 25, 17,
   -12, 48, -19, -19, -12, 38, 27, -32,
   17, 1, -54, 39, -59, 24, -70, -13,
   -36, 75, -21, 8, 3, -28, 46, -12,
   -12, -90, -14, 44, -29, 36, 24, -31,
   -78, -19, 58, -127, -1, 103, 42, -128,
   98, 41, -61, 26, -128, 32, -90, -18,
   18, -123, 33, -89, -30, 122, -43, 73,
   52, 117, 106, 127, 81, 65, -56, -128,
   -31, -65, 88, -36, 19, 44, 107, 75,
   50, 4, -27, 62, -13, -95, 15, -11,
   126, -76, 9, -53, -23, -72, -22, -121,
   -7, -93, 20, -108, 95, -113, -15, 26,
   62, -63, -64, 127, 23, 36, 20, 113,
   -12, 36, -7, -35, 40, -59, 58, 76,
   12, -50, 38, 18, -128, 127, 73, 39,
   -5, 94, 77, 127, 33, 120, 52, -24,
   41, -68, 23, -82, -69, -37, 24, 15,
   127, 13, 123, 75, -19, -16, -23, -128,
   44, 39, -25, -68, 127, -32, 28, 123,
   -55, 27, 127, 127, -44, 41, 11, -51,
   -7, 31, 12, 87, 127, 89, 80, -56,
   44, 21, 80, 24, 27, -29, -12, -19,
   -52, -20, 2, -64, 62, 21, -8, -127,
   79, -15, -128, -16, -69, -106, -20, -47,
   -29, 75, 0, 41, 97, -10, 70, 94,
   45, 97, -12, -71, -19, 20, -64, -47,
   -3, 26, -25, -98, -56, -112, 126, -49,
   -93, -72, 45, 127, -16, 6, -13, 4,
   86, -76, -82, -126, -42, -19, 26, 67,
   125, 62, 97, 127, -46, 112, 60, -126,
   45, -20, -26, -91, 86, -30, -14, 105,
   48, 7, 127, -45, -36, 62, 83, -53,
   43, 12, 64, 52, -50, -10, 23, 51,
   -11, 73, 67, -33, 85, 73, 34, -62,
   42, 20, 12, 34, 51, 79, -38, -32,
   72, 8, 44, -9, 1, -15, 40, 42,
   29, -3, -13, 23, -44, 17, -66, 43,
   -62, 124, 17, 14, 17, 14, -107, -44,
   96, -24, -38, -2, 13, 96, -51, 26,
   19, 66, -54, 125, 35, -39, -17, -18,
   -53, 126, 64, -25, 125, -16, 72, -17,
   -116, -103, -68, -67, 39, -19, -116, 127,
   22, 89, -42, 45, 87, 124, -17, -126,
   -90, 2, 11, -25, 88, 21, -19, 127,
   114, -89, -60, 25, -127, 43, 21, 27,
   -89, -8, 1, -54, 44, -14, 5, -99,
   -3, 26, -5, 50, 10, -30, -60, -45,
   61, 11, -122, -35, -7, -53, -29, -60,
   29, -73, -39, 60, -42, -10, 15, -77,
   -30, -44, 103, -41, 48, -22, 122, 37,
   -11, 60, 45, 76, 8, 127, 7, 43,
   -8, 58, 7, 127, 46, -2, -18, -91,
   -53, -26, -74, -10, -40, 0, -61, -27,
   -127, -121, 11, -127, -89, -50, 54, -65,
   -22, -53, 29, -89, 52, -58, 37, -31,
   -79, -121, -127, -120, -64, -48, -101, -34,
   -91, 26, -52, -34, 72, -95, -71, 22,
   -70, -36, -52, -16, -14, -70, -68, 16,
   -46, -10, -18, 21, -85, 40, 119, 39,
   -51, -38, 58, 101, 45, 27, -15, -25,
   -2, 74, -18, 35, -55, 36, 16, -16,
   -85, -42, 2, 127, 3, -31, 5, 30,
   -11, -50, 14, 63, 78, 53, -128, 19,
   -92, 15, -37, -128, 16, 14, 51, -61,
   12, -33, 5, -104, 15, 112, -34, -79,
   83, 85, -39, -15, -98, 17, 127, 47,
   66, 20, 114, -125, -115, -1, -103, -49,
   127, 16, 66, -28, -72, -2, -41, -69,
   92, 64, -29, -14, -96, -15, -61, 61,
   72, 31, 57, 26, -36, -31, -27, -43,
   -27, 12, 66, -26, 4, -21, -41, -14,
   123, -1, 14, -19, 121, 25, 24, 67,
   64, 5, -5, 55, 40, 11, -9, 52,
   -63, 61, 49, -100, 50, -33, 44, 24,
   -9, -70, 24, -80, -111, -42, 42, 76,
   -64, 41, -40, -9, 13, 47, 28, -35,
   127, 31, 127, -119, 124, 93, -88, 96,
   83, -36, -68, -40, 73, 98, -127, 32,
   90, 49, -119, -67, -36, 127, 101, 78,
   -14, 110, 84, 124, 127, 113, -11, 127,
   -6, 121, 55, -48, 64, 46, 41, -45,
   86, 28, -48, -23, -60, 116, 95, -60,
   32, 80, -33, -36, 41, -24, -78, -89,
   -52, -83, -54, -60, 49, -53, 33, -53,
   -19, 31, -84, 84, -8, 94, 41, -89,
   -28, 95, 9, -26, -91, 68, 7, 112,
   -127, -91, 44, 125, -60, 82, 40, -2,
   -116, 67, -35, 70, 4, -31, -67, -80,
   -78, 123, 127, 127, 121, 78, 113, -126,
   -125, -116, -100, -79, 7, -43, -43, 127,
   127, 29, -41, 76, -69, 13, -25, -107,
   0, 127, -127, 19, 127, -85, -119, 35,
   21, -61, -75, -18, -100, 18, -13, 3,
   2, 27, -19, -39, -35, -16, 39, -59,
   64, 43, 71, 56, -70, -37, 28, 18,
   -34, 12, -98, -9, -42, 116, 10, -4,
   64, -32, -57, 37, -24, 63, -35, -31,
   -78, -8, 17, -3, 17, 17, 82, 30,
   2, -21, 48, 87, 23, 70, -18, 20,
   -96, 77, 48, -30, 52, 47, -56, -38,
   6, -32, 16, 3, 93, -77, 127, -115,
   0, 27, 25, -6, 26, 38, -27, -72,
   -43, -69, 127, -127, -19, -1, 21, -30,
   25, 85, -77, -37, -24, -17, 93, -2,
   70, 34, 87, 113, 127, -55, -36, -26,
   -36, 13, 4, 83, -11, -10, -18, 35,
   4, -84, 70, 21, 11, 28, 60, 2,
   14, -26, 121, 125, 26, -74, 55, 51,
   -12, 71, -5, -26, -4, -124, 84, -46,
   99, -33, -81, -36, -8, -3, -78, 121,
   -104, -8, 39, 4, -103, 5, -15, -25,
   -29, -6, 9, 38, -45, 50, -66, -26,
   -18, 25, 127, 122, -19, 15, 9, 50,
   127, 125, 127, 127, 28, -1, 124, -65,
   29, 108, 78, -96, 0, -81, -126, 45,
   12, 22, 127, 21, 110, 36, -66, 104,
   20, 120, 1, 20, 55, 38, 40, 127,
   17, -46, -15, -11, 20, -39, 44, 52,
   -20, -8, 5, 116, 43, -91, -11, 80,
   96, -77, -33, 40, -50, 59, 60, -31,
   56, -7, -67, 9, -16, 9, -33, 39,
   100, 81, 66, 3, 75, 125, 20, -53,
   126, -35, 36, 17, -11, -33, 32, 127,
   89, -27, -8, 17, 67, -6, 77, -29,
   -46, -3, -128, 95, -36, -53, 4, 47,
   -25, -127, 17, -17, -77, -127, -7, 91,
   -53, 58, 97, 69, 125, -128, 127, -49,
   -23, -126, -118, -109, -101, -25, 92, -94,
   -16, -91, -92, -10, -10, -48, -66, 39,
   -108, -29, -4, 27, -4, -68, -37, -119,
   11, -87, -91, 12, 7, 18, -60, 34,
   -127, -126, -47, 113, -120, -14, -9, -21,
   58, 47, 50, -61, -8, 30, 33, -92,
   127, -1, 93, 36, 11, -30, 44, -10,
   -14, 120, -19, -52, 25, -46, -77, -42,
   127, -25, -44, -10, -88, -69, -4, 106,
   -49, 32, -26, 16, 95, -27, 47, -93,
   -128, -123, -105, -128, -57, -30, -49, 24,
   -7, -88, -12, 36, -52, 16, 50, -127,
   -125, 46, -127, -41, 103, -109, -114, 77,
   -12, 26, -25, -4, 0, 44, -28, 24,
   -65, -49, 22, -21, -3, 2, -49, -49,
   3, -47, 13, -74, 18, -28, -47, -41,
   41, -65, -50, 2, -46, -42, 12, -26,
   28, -4, -48, 111, 29, 17, -26, -39,
   9, 0, 19, -4, 24, 72, 47, 14,
   9, 41, 54, -13, -11, -127, 45, -1,
   -16, -15, -54, -34, 9, -20, 25, 49,
   3, -49, -104, -44, 10, -127, -123, 63,
   -54, 113, 42, 52, 58, 41, 54, 106,
   87, 28, 37, -49, -3, 127, -24, 127,
   103, 93, 91, 13, -50, 96, -25, -41,
   -33, -56, -97, -8, 16, -44, -76, -127,
   -21, 51, 27, -8, -30, 29, 21, 45,
   -65, 27, 60, 55, -16, 42, 29, 35,
   -101, 49, 45, 53, -107, 69, -39, -10,
   -73, -74, 34, 37, 66, -9, -21, -108,
   -20, -117, 46, 46, 65, -81, 109, 9,
   -35, 9, -28, 76, -81, 113, 42, 105,
   -55, 126, -12, -81, 17, 115, -16, -16,
   -73, 121, -50, 65, 23, -63, 28, -85,
   -123, -125, -78, -128, 26, -128, -60, 22,
   -120, 22, 5, 60, -51, -54, 40, -37,
   -119, 51, -125, -104, -39, -42, -58, -12,
   -44, -61, -75, -25, 15, 2, -25, -22,
   25, -15, -37, 23, -22, -94, -31, 35,
   -12, -86, -101, -3, -1, -37, 45, -11,
   -112, 26, 47, 62, -94, 59, 10, -36,
   60, -52, 4, 23, -31, 7, -26, 7,
   -1, -75, -4, 25, 36, -27, -1, -8,
   42, 66, 61, 36, 113, 11, -5, 14,
   18, 2, -11, 27, 9, 61, 42, -16,
   68, -92, -121, -33, -116, -32, -50, 73,
   -5, 36, -104, 22, -62, -19, -8, 125,
   6, 8, -53, -128, 2, -125, -121, 55,
   17, -100, 127, -75, -128, 7, 38, -45,
   -26, -8, -87, -86, 5, -37, 38, -114,
   -2, 2, -25, 97, 66, 120, -49, 34,
   34, 27, 57, -26, -35, 76, -80, 6,
   45, -75, 24, 64, -84, 31, 3, 20,
   -57, -38, 52, -49, -9, -9, -24, -10,
   -14, -58, -57, -34, 33, -109, -15, 52,
   1, 8, 83, -10, -83, 91, 6, 69,
   -35, 127, 104, -10, -14, 47, -83, 25,
   47, -19, 49, 22, 31, -25, -30, 8,
   -37, 72, 50, 123, 88, 106, -41, -127,
   31, -59, 115, 9, 63, 15, 39, 55,
   57, 0, 101, 127, 44, -49, 127, 48,
   78, 47, 52, 80, 51, 23, -11, 48,
   64, 21, 9, 23, -5, 16, 30, -58,
   51, 31, -5, -36, 23, 41, 32, -9,
   121, 42, 25, -25, 86, 112, 17, -2,
   -18, 80, 0, -30, 125, -30, 27, 3,
   6, -14, 17, 17, -25, -19, 16, -102,
   -16, 14, -3, -9, 34, -115, 125, -93,
   28, -8, -6, 70, -79, 9, 0, 0,
   58, 81, 97, -86, 7, 70, -107, -4,
   117, 36, -25, 127, -68, -113, 94, 127,
   127, -25, 96, -1, 15, -99, -119, -77,
   -71, -55, 126, -114, -8, 43, 7, -63,
   23, 112, -55, -80, -66, 10, 18, -88,
   91, -2, 24, 47, 15, 61, 53, -15,
   50, 119, 39, 75, -2, -14, -36, 75,
   -54, -24, 57, 117, 95, 22, 49, 32,
   -8, -93, -15, 28, -87, 80, -19, -102,
   -101, 22, 36, 66, 67, -28, 66, 18,
   7, -65, -45, 21, -45, -27, -6, 28,
   -66, -4, -76, -10, 45, 21, -8, -58,
   43, 12, 56, -22, -55, -23, 45, 123,
   92, 68, 65, 17, 13, -45, -68, -126,
   -63, 67, -88, 10, -1, -15, 50, 93,
   -101, -121, 113, 77, -69, 60, 115, 52,
   -15, 84, 47, 96, 2, 76, 33, -23,
   -14, 82, -45, 29, 59, -46, 13, 105,
   9, -46, -4, -16, 25, 86, 27, 27,
   -2, 35, 13, -55, 24, 123, 40, -16,
   49, 43, 43, -20, 27, -29, -56, 27,
   23, 30, 117, -78, -18, -48, 47, -45,
   83, -19, 75, 51, -35, 10, 30, -12,
   127, -61, 92, -15, -5, -47, 65, -5,
   -59, 1, -120, -31, 47, 127, -2, -45,
   89, 68, -31, -28, -72, -47, 71, 127,
   60, 68, 24, -127, -88, -73, -127, 45,
   27, -43, 109, 19, -35, 110, 7, -21,
   1, 56, -13, -14, -78, -43, 35, -3,
   75, -43, 16, 32, -49, 113, 29, 92,
   70, 112, 95, -18, -31, -43, -69, 26,
   69, 15, -110, 48, 52, 46, 13, 9,
   -45, -87, 5, 6, 1, -28, -29, -22,
   -71, -20, -126, -67, 120, -49, 71, 12,
   13, -59, 39, -8, -127, 126, -54, -10,
   -69, 127, 9, -60, -3, 54, -63, -2,
   -79, 47, 127, 127, 127, -41, 93, 106,
   -101, 39, -4, -127, 127, -54, -79, -20,
   47, 120, -35, 15, 5, 127, 77, -128,
   -22, 127, -128, 89, 127, -34, -118, 127,
   111, 116, 20, 9, -42, 10, 38, 21,
   38, -42, 124, 113, -65, 64, 127, -63,
   -82, -126, 91, 43, 74, -128, 127, 79,
   127, -16, -99, -128, -23, 117, -69, -3,
   -60, -29, 32, -31, 127, -128, 71, -66,
   -55, -128, 21, -42, -52, -86, -1, -11,
   0, 20, 80, 9, -28, -91, -18, -58,
   127, -96, 127, -17, -42, -24, 20, 43,
   60, -65, -10, -28, -127, 36, -33, 39,
   126, 85, 80, 127, 1, 111, -34, -113,
   127, 63, -2, -55, 32, 5, -15, 109,
   70, -43, 126, 118, -10, 126, 124, 13,
   25, -44, 23, 15, 33, 31, 47, 11,
   71, 59, 125, 29, 47, 76, 20, -14,
   -16, 43, -22, -64, 78, 106, -50, 9,
   2, 1, 4, -4, -29, -6, 29, 28,
   47, 127, 27, -23, 19, -12, -6, 57,
   19, 43, 4, -10, 12, 7, -43, 8,
   -55, 34, -36, 27, 25, 23, 96, 53,
   15, -9, -57, 127, -46, 105, -52, -2,
   48, 127, 54, 26, 25, 17, -12, 10,
   99, 26, 49, -47, 117, 116, 127, 63,
   4, 37, 40, -126, -128, 41, -128, 116,
   52, -7, 9, -6, 20, 127, 98, 82,
   -18, 48, 0, 3, 88, 107, 9, 127,
   8, -32, 100, -18, 40, -82, 35, -2,
   -16, 47, 58, 28, 23, -40, 53, -90,
   88, 72, -14, -50, 34, 6, -30, 14,
   -9, -87, -58, -9, 84, -5, -19, 60,
   -76, 27, -11, -30, 3, 110, 63, -116,
   25, -39, 8, -29, -66, -52, -72, 3,
   -101, -2, 127, 37, 43, 72, -33, -83,
   -102, -45, 47, -19, 64, 83, -109, -76,
   15, 111, -127, 19, -14, -125, 2, 127,
   30, -62, -44, 46, -3, -8, -98, -103,
   -19, -103, 2, 60, -31, -63, 26, -53,
   116, 17, -115, -8, -127, 24, -55, -126,
   72, -41, -17, 62, -22, 119, 33, 52,
   -30, 3, 0, 111, 15, 8, 15, 81,
   100, 35, 70, 106, 64, -3, -12, 6,
   9, -116, 21, 109, -33, 10, -16, -127,
   -101, -34, -97, 73, 56, -28, 105, 49,
   -94, -53, -7, 94, -11, -17, 4, 119,
   -10, 32, -12, 103, 52, 126, 34, -105,
   -73, -23, 103, -113, -71, 62, 6, 46,
   123, 58, -73, 60, -47, -124, -18, -100,
   -38, 44, 17, -78, -24, 79, 4, 41,
   -7, -9, 22, -12, -39, -27, 119, -79,
   48, 127, -32, 10, -62, 76, 31, 33,
   -40, 22, -35, -84, 11, 71, 24, 35,
   -4, -7, -1, -48, -61, -17, -7, 84,
   44, 71, -28, 37, 66, 30, 4, -62,
   9, -9, -66, 7, -81, 41, -40, 20,
   17, 65, -40, 9, 75, -39, 15, -31,
   -12, -37, -27, 0, 32, 67, -36, 37,
   71, 61, -8, 47, 1, 37, 59, -118,
   97, -63, -40, 115, 5, -58, -3, 48,
   -66, 10, -50, -13, -67, 84, -71, 65,
   -19, -81, -71, 111, -47, -127, -32, -86,
   -84, -41, -103, 37, -34, -127, 127, 15,
   -92, 34, 75, 1, 68, -67, 94, -40,
   16, 2, -51, -29, -32, 7, -26, 106,
   24, -124, -76, 28, 5, 25, -30, 19,
   -126, 6, 9, -23, -4, 14, 50, -26,
   -21, 76, 0, -11, 6, -53, 39, -33,
   30, -27, 28, 5, -39, 49, -22, 18,
   33, 41, -1, -71, 66, 35, 50, -13,
   109, -25, 60, -52, -37, -98, -27, 127
};

static const rnn_weight vad_gru_bias[96] = {
   64, 33, -6, -17, -36, 29, 16, 71,
   127, 125, 127, 127, 42, 105, 100, -55,
   65, 95, 121, -127, 12, -35, -98, -10,
   94, -51, 119, 3, 9, 62, 92, 53,
   29, 67, 26, 36, 22, 8, 15, 11,
   7, 37, 17, 9, 11, 21, 16, -2,
   13, 38, 17, 23, 13, 26, 12, 25,
   34, 51, 16, 0, 26, 40, 25, 21,
   20, -42, -26, 12, -10, 29, -21, 0,
   -3, 39, -5, 1, 21, 7, 4, 24,
   31, -1, -27, 19, -23, 21, 5, 15,
   13, 32, 9, 43, 26, 18, 12, -33
};

static const GRULayer vad_gru = {
   vad_gru_bias,
   vad_gru_weights,
   vad_gru_recurrent_weights,
   24, 32.0, ACTIVATION_TANH
};

static const rnn_weight vad_gru2_weights[2304] = {
   -65, -35, -82, 29, -119, -68, 62, -84,
   -1, 15, 17, -20, -123, 10, -24, 16,
   9, 32, -9, -3, -4, -122, 5, -34,
   105, -128, 24, -127, -62, 83, 127, 85,
   -85, -111, -125, -32, -126, -127, -21, 34,
   98, 7, 121, 38, 65, 66, -11, 55,
   -27, -8, -11, 90, -77, 7, 18, -66,
   -43, -6, -46, -4, -38, 30, -49, -31,
   53, 38, 2, 7, 39, 11, 35, 1,
   -73, 17, 99, 46, 117, 117, -88, 23,
   69, -21, -121, 75, 1, 109, 44, 59,
   45, 15, 28, 6, 89, -8, 39, 36,
   123, 83, -99, 32, -11, 114, -28, 122,
   63, -27, -67, 51, -127, -29, 56, 121,
   -91, 17, -6, 4, 127, 38, 51, -35,
   37, -56, -124, -112, -2, -97, -37, 15,
   -86, -57, -128, 6, -126, -38, 55, -108,
   -121, -50, -62, 87, 23, -127, -94, -120,
   -16, -79, 6, -56, -27, 21, -48, 9,
   -17, -78, -69, 7, 43, -53, 70, -62,
   -61, -100, -35, -53, 20, -13, -36, -26,
   35, 7, -102, -25, -128, -12, 76, 70,
   -22, -97, -79, -102, 14, -128, -27, 1,
   127, -72, -13, -12, -45, -105, 18, 120,
   24, -22, -80, -69, 20, -61, -50, 25,
   -108, -39, -14, 77, -38, 6, 3, -65,
   -126, -88, -128, 97, 38, 29, -114, -55,
   -68, 119, 61, 42, 23, 58, -126, 40,
   37, -62, 120, 121, 45, 115, -44, -10,
   49, 7, 25, 68, 3, -66, 31, 74,
   -128, 34, -31, 97, 56, 43, -128, -128,
   -57, 55, 51, -11, -17, 20, -112, -26,
   -94, 108, -6, -18, -89, -50, 42, -42,
   22, 38, 72, 92, -3, 109, -65, -51,
   46, 1, -45, -28, 124, 107, 6, 103,
   127, 72, 86, -125, -50, 66, 127, 93,
   40, -73, -22, -14, -95, -15, -12, -44,
   50, -14, 58, -1, -65, 60, -32, 44,
   -24, -74, -4, -26, 56, 75, 15, -27,
   127, -21, -4, -57, -110, -63, 109, 5,
   -57, -16, -62, -120, -21, -125, -68, 57,
   23, -22, -11, 10, 79, 37, -77, -127,
   -79, -98, -69, -122, -21, -78, -12, 12,
   -125, -34, -52, 50, -63, -97, -34, -125,
   -128, -99, -127, 127, 94, -50, -128, -101,
   -62, 4, -87, -79, 20, 6, 122, 111,
   -52, -3, 11, 40, 31, -124, 36, -105,
   -50, 44, -49, -35, -29, -118, -73, -55,
   -6, 127, -127, 110, 125, 30, -27, 127,
   -33, 102, 27, 126, -28, 69, 49, 3,
   -43, 107, 48, -30, -33, 69, 115, 3,
   -20, 73, 88, 102, 1, 45, -121, 7,
   52, 22, 43, -6, 24, 81, 59, 41,
   105, -11, 93, -85, -53, 76, 51, 125,
   -59, -126, -76, -39, -98, -127, 56, 77,
   -60, 31, -125, -127, -128, -90, -65, -70,
   -48, -123, -74, -72, -122, -79, -68, -57,
   -30, 104, 126, -67, 38, -126, 61, 90,
   -106, -113, -40, 95, 38, -8, -1, 19,
   19, -101, -25, -37, -20, -20, -67, 67,
   91, 19, -65, -19, 6, -53, -96, 13,
   -19, 9, -56, 61, -28, -13, -6, -74,
   -3, -65, -70, 66, 81, -1, -67, -42,
   -67, 19, 79, 62, 5, 5, -41, 32,
   32, -113, 29, -56, 88, 127, -51, 76,
   90, -19, 69, 78, -20, 125, 52, 75,
   29, -127, 64, -94, 42, 47, -17, -125,
   105, 91, -105, 121, -16, 108, -84, -41,
   -128, 111, 34, -34, 127, 41, 2, 66,
   -11, -5, -7, -54, -74, 72, 70, 98,
   90, 23, 16, -128, -4, -5, 111, 10,
   104, -46, 36, 36, -67, 35, 38, 8,
   -8, 16, -100, -85, 114, -118, 122, 4,
   -103, -96, -17, -32, -99, -53, 91, -81,
   -71, -27, -87, -103, -69, -38, -103, -85,
   6, 28, 11, -32, -44, -15, -28, -3,
   -18, -9, -33, -45, 4, -48, 5, -41,
   27, 51, -13, -9, -16, -17, -75, 4,
   -20, -55, -22, -31, 33, 5, -53, -9,
   -18, -24, 78, 32, -53, -31, -5, 42,
   -9, -30, -52, -32, 13, -74, -63, -10,
   52, -62, -128, -128, 38, -39, 100, -5,
   -128, -75, -30, -13, -39, -97, -1, -124,
   -121, -59, -128, -128, -69, -20, -128, -127,
   11, 80, -53, 16, 112, 36, -11, 125,
   -51, 54, 81, 52, 51, -50, 64, -48,
   2, 87, 51, -78, 31, 59, -4, 95,
   51, 45, 10, -5, -13, 26, -28, 6,
   36, -30, -47, -28, -42, -49, 48, 15,
   -13, -53, 21, -17, 29, 42, 21, 34,
   33, 26, -34, 1, -17, -35, -68, -57,
   25, -59, 107, -64, -127, 37, -100, 38,
   53, 37, 52, 22, -46, 102, 29, 7,
   81, -44, 41, -127, -5, 94, 65, 32,
   -118, -62, 28, 34, 9, -26, -10, -22,
   -28, 29, -88, -47, -72, 113, -100, -65,
   -39, -10, 10, -26, -45, 60, 42, -65,
   41, -25, 79, 11, 27, -30, 12, -4,
   36, -12, 30, 33, 69, -17, 29, -52,
   -1, 6, 122, 86, -24, 127, -74, 19,
   80, -8, 11, 27, -53, 28, 127, 60,
   71, 77, 78, 100, 78, -26, 78, 125,
   -91, 67, 8, 93, 8, -18, -97, 3,
   22, -68, 100, 44, -58, 57, 54, 67,
   -80, -66, -8, 74, 35, 16, 84, 62,
   -43, 60, -34, 5, 42, -8, -40, -67,
   -38, -4, 46, -58, 62, -57, -31, 34,
   47, 49, -22, -63, 37, -9, -18, 11,
   83, -123, 8, -5, -67, -85, 91, -65,
   5, 18, -11, -111, -4, 56, -14, 14,
   -3, -28, -8, 18, 29, 96, 5, 110,
   30, -32, 71, -98, 34, 27, -15, -39,
   81, 18, 24, 127, -9, 94, 97, -22,
   -91, 9, -28, 12, 116, 94, 21, -21,
   -50, -17, 18, 126, -98, 117, -37, -23,
   110, 18, -56, -112, 74, 18, 73, 37,
   124, 59, 93, -35, -89, 37, 79, 46,
   11, 41, -26, 61, 0, 43, -22, 1,
   24, 126, -8, 49, -125, 8, -67, 43,
   70, 65, 40, 22, 7, -18, 32, -41,
   117, 4, -57, 17, -73, -40, 115, 72,
   -109, 39, -14, -124, 41, -91, 43, 88,
   125, 15, -11, -62, 74, 97, 110, 6,
   71, 69, 121, 49, -36, -5, 15, 21,
   3, -16, -70, 24, -36, -3, 71, 18,
   -95, 26, -16, -52, 91, -51, 41, 46,
   -84, 41, 105, 102, 60, 48, -128, -89,
   116, 99, 9, 37, 25, 127, -10, 98,
   112, 87, 126, 127, 108, 110, 124, 85,
   18, -59, -32, 9, -31, 31, -47, 27,
   -59, 4, 22, -125, 28, -66, -24, 9,
   127, -118, -5, 12, -34, -24, 1, 9,
   -13, -24, -6, 20, -32, 32, 37, -83,
   75, -38, -41, -17, 55, 28, -57, 10,
   10, 28, 25, -36, -89, -25, 11, 35,
   127, -30, 106, -56, 0, -128, 55, 57,
   -115, 127, 76, -63, 127, -125, 71, -109,
   -38, -78, -51, -30, -125, -20, -84, -16,
   -91, 86, 91, 121, 127, 29, -127, -21,
   -18, 112, 127, 127, -11, 126, 127, 20,
   -52, -128, -42, 47, -35, 55, 47, 119,
   -40, 72, 125, 92, -40, 111, 11, -113,
   127, 0, 55, -95, 111, 126, -53, 127,
   127, 127, 123, -128, -59, 78, 127, 127,
   25, -49, 71, -22, -62, 8, 13, -115,
   -12, -15, -4, -21, 38, -17, 127, 18,
   -22, -108, -20, -36, 60, 117, -2, 10,
   -12, 1, -90, 55, 82, 35, -33, 122,
   -1, 40, 120, 36, -19, 5, 127, 42,
   100, 5, 69, -17, 91, 43, 50, 16,
   -17, 62, 105, 120, -30, 5, 89, -53,
   21, -34, 77, 41, 98, 87, -18, -10,
   85, 57, 43, -97, 33, -84, 42, 90,
   -56, 96, -24, 11, 127, 123, -37, 117,
   13, 88, -1, 125, 102, -34, -127, -23,
   -18, 127, -9, 2, 27, -64, 4, 49,
   127, 69, -35, 56, 68, 46, -2, 94,
   -15, -1, -41, 22, -127, -6, 72, -11,
   -47, 77, -17, -5, -66, 21, 12, 16,
   3, -38, -124, -39, -3, -41, 68, -56,
   -92, -92, 28, 55, -64, -121, -48, -59,
   -128, -5, -92, 77, 60, -8, -85, -36,
   -2, 29, 127, 122, -21, 62, -124, -26,
   120, -60, 107, -16, 45, 4, -98, 127,
   127, 38, 126, 127, -9, 127, 120, 127,
   -103, -80, -9, -29, -60, -46, 36, -9,
   13, -101, -34, -78, 29, -127, -127, 31,
   21, -51, 104, 87, -44, 46, -9, -64,
   -34, -21, 2, -10, 46, -22, 69, -2,
   -12, 21, 63, 45, 26, -40, -33, 50,
   52, -30, 14, 17, -18, 47, -80, -6,
   -3, 56, -44, -73, 61, -83, 109, 113,
   -35, 42, 60, -41, -10, -54, 113, -89,
   -60, -32, -60, -50, -96, -38, -52, -74,
   -52, 103, -5, 127, 82, -128, -128, 102,
   6, 82, 127, -38, 127, 127, 83, 11,
   116, -95, 92, 127, -101, -118, -26, -5,
   -42, 76, 126, 73, -85, 126, -94, -122,
   127, 21, -107, -21, 80, 54, 43, 127,
   126, 52, 126, -126, -66, 8, 127, 126,
   -103, 48, 103, 127, 24, 122, -94, -87,
   127, 68, -63, 64, 54, 95, -111, 127,
   115, 117, 120, 127, 87, 64, 127, 127,
   -15, -59, 92, -3, -19, 4, 0, -32,
   17, -52, -34, 67, -14, -29, -54, 62,
   7, -70, -99, 9, -1, 125, 62, 63,
   -23, -4, -5, -34, 33, -7, 55, -41,
   25, -20, 30, -49, -35, -37, -75, -31,
   -54, -20, -33, -28, 59, -16, -38, -79,
   12, -26, 93, -9, 127, 95, 9, 10,
   -7, 16, 83, 101, 127, -36, 90, -14,
   29, 46, 19, 47, 79, -12, 9, 115,
   -126, 50, 31, 127, 46, 45, -128, -23,
   -9, 82, 127, -26, 78, 127, 18, -110,
   -107, 115, -12, -62, -128, -55, -8, -32,
   60, 117, 88, -14, -44, 71, 1, -52,
   84, 50, 0, -51, 5, 36, -37, 49,
   127, 10, 126, -86, 37, 88, 117, 95,
   -5, -49, -90, -47, -101, -118, 112, -35,
   -105, -88, 75, -124, -82, -73, -110, -124,
   -11, -65, -61, -35, -127, -50, -94, -74,
   -9, 80, 122, 58, 16, -126, -1, -24,
   13, -83, 124, 111, 127, 64, 39, -70,
   33, -127, 39, -34, -98, 11, -64, 34,
   35, 8, 27, 22, 27, -40, -56, 10,
   -23, 62, 76, 14, 82, 10, -42, -47,
   82, 57, 19, -8, -19, 69, 35, -58,
   22, -61, 30, -33, -101, -39, 0, 85,
   -2, -56, -128, -26, 37, -91, -14, 25,
   27, -89, -5, -14, -25, 42, 7, 42,
   -88, 40, 10, -89, -50, -14, -28, 123,
   -61, -25, 41, -55, -19, -13, -51, 102,
   45, 61, 34, 26, 19, -41, -53, 4,
   -14, -26, 47, 39, -27, 25, -76, -47,
   59, -12, -54, 20, 117, 66, -10, 79,
   34, 13, 37, -59, -10, 36, 3, 27,
   79, -24, -51, -69, -95, -119, 80, 92,
   -102, 37, -10, -111, -114, 0, 51, -83,
   -81, -52, -105, -117, -65, 26, -106, -127,
   73, 62, 28, -105, 123, 30, 35, 112,
   41, -52, 102, 23, -55, 127, 127, 31,
   -61, 13, -95, 23, -46, 45, 22, -61,
   -29, -47, -19, 47, 58, 6, 21, -32,
   -10, 18, 43, 41, 1, -21, -57, 20,
   14, 97, -17, -15, -10, -56, -44, -14,
   -4, 10, -42, -38, 127, 119, 19, -75,
   -13, -15, -6, 127, 107, -32, 127, -30,
   -41, 99, -37, -24, 77, -78, -10, 69,
   -35, -128, -87, 108, -17, 75, -128, 33,
   -48, 126, 69, -128, -126, -12, 99, -1,
   8, 126, 6, -115, -8, -11, 90, 45,
   -50, -3, 59, 56, -127, 118, -34, -35,
   125, -46, -4, -74, 28, 28, 28, 126,
   120, 80, 126, -127, -118, 40, 107, 127,
   -12, -20, 60, 79, -48, -57, 119, 127,
   81, 24, 127, 20, -127, 127, -77, 111,
   75, -75, 69, 75, 25, 112, 73, 37,
   50, -126, 74, -94, -124, -45, -17, -36,
   94, 53, 43, -125, 18, 13, -26, 127,
   -24, -44, -71, 61, -40, -36, 21, -66,
   -91, -75, 85, 3, 103, 50, 48, -99,
   63, 45, 113, 68, 55, 72, -85, 24,
   -84, 35, -40, -66, 13, -27, -29, 70,
   96, -22, -128, -105, -6, -80, 127, 127,
   -123, 19, 31, -84, -69, -80, -46, -125,
   -120, -43, -126, -97, -71, -114, -120, -124,
   96, 5, -62, -74, 9, -33, -6, 9,
   -78, 55, -63, 21, 64, -77, -41, -65,
   -10, -3, 23, -2, -53, 30, 22, -40,
   -22, -55, 13, -58, -28, 6, 32, -52,
   -43, 31, 32, -33, 5, -56, 54, 37,
   -78, 47, -8, -36, 26, 14, -51, 51,
   -10, 65, -9, 15, 30, -54, 125, -13,
   4, 26, 127, 73, 12, 33, 72, 40,
   31, 1, 7, 38, 1, 109, 2, -71,
   -3, -66, -36, 8, 102, 61, -66, 1,
   103, 126, 77, -2, -32, 63, 74, -23,
   -9, 6, 108, 13, 30, 94, 89, -53,
   -39, 91, 82, 124, -68, 117, 13, -23,
   126, 75, 31, -49, 38, -12, -8, 127,
   126, 49, 127, -127, -121, 50, 127, 126,
   -45, 90, -3, 51, 31, 79, -6, -101,
   70, 13, -79, 126, -58, 19, 28, 59,
   64, 66, 51, 79, 106, -43, 65, 96,
   -64, 40, 23, -83, -86, 42, 8, 74,
   -32, -71, -12, 18, -97, -94, -124, 28,
   40, 125, 81, 56, 38, 16, -14, -10,
   -60, -102, 35, -108, -1, -6, -31, -34,
   -60, -91, 46, -28, 54, -78, -50, -18,
   -31, -11, -30, -4, -29, 36, 10, 56,
   47, 43, -114, -95, 67, -8, 42, 14,
   -73, -20, 1, 34, -128, 20, 106, -22,
   -85, -11, -79, -87, -14, -8, -62, -79,
   47, -109, 98, -85, -51, 2, 7, 47,
   -15, 34, 120, 37, -78, 7, 49, 80,
   2, 127, -108, 30, -17, 15, 10, 22,
   7, 2, -12, 14, 2, 50, 11, -68,
   16, 47, 5, 40, 90, 77, -21, 32,
   -39, -10, 7, -25, -63, -21, 8, 14,
   -34, -110, 58, 35, -3, 109, -124, -20,
   45, -38, 77, 20, 119, 39, 60, 21,
   11, -39, 34, 15, 127, -124, 53, 10,
   -46, 54, 21, 6, -128, -112, 32, 65,
   -23, -121, -72, -63, -19, -51, -127, 54,
   -21, -90, -50, 73, -43, -114, -2, 72,
   37, -102, -11, -38, 57, -34, 22, 65,
   -73, -37, -31, 68, -42, -95, 48, -55,
   -108, -8, -97, 127, 40, -62, -77, -104
};

static const rnn_weight vad_gru2_recurrent_weights[1728] = {
   127, 6, 20, -58, -50, -29, 124, -31,
   -62, -22, 22, -71, 103, -68, 127, -43,
   -23, -26, -24, -54, -9, -125, -35, -35,
   32, 125, 66, -46, -7, 28, 4, 83,
   48, 0, -2, 121, 15, 92, 83, -56,
   -77, -3, 0, -23, -51, -5, -32, -6,
   126, -122, -50, -124, 11, -77, 23, 79,
   -127, -116, 47, 125, -32, -118, -22, -123,
   -122, -70, -120, 127, 61, 6, -128, -124,
   -14, -42, 7, -11, 127, -95, -14, -95,
   -17, 39, -49, -44, -10, -77, -23, -22,
   -2, -70, 0, 6, -64, -18, -15, -14,
   -107, -5, -27, -23, 20, -89, -9, -17,
   -59, 61, 33, -51, 14, -53, 41, -44,
   25, 12, -83, -33, -55, 7, -5, 3,
   -12, 86, 127, 90, -49, 127, -86, 18,
   127, 103, -75, -38, 68, 127, 127, 127,
   102, 76, 124, -128, -42, 96, 127, 106,
   53, 11, 4, -35, 65, -49, 4, 70,
   -31, 22, -16, -15, -9, -28, 28, -29,
   -15, -47, -10, -41, -14, 70, -20, -42,
   4, -11, -20, -29, -52, 40, -32, 56,
   -11, 88, 126, -37, 0, -5, 35, -17,
   8, 18, -10, 7, -31, -44, 8, -49,
   21, -45, -32, -90, 44, -9, 21, 28,
   -56, -33, 126, 48, 44, -124, -31, -4,
   -91, -51, -49, 56, 78, -14, -6, -57,
   97, 1, -58, -33, 9, -98, 83, 8,
   -51, 46, 25, -42, -117, -18, 36, -45,
   -39, -37, -64, -63, -80, 19, -42, -104,
   45, 3, -2, -54, -24, 29, 82, 63,
   -14, 39, -30, -31, -98, 36, 75, 53,
   16, 37, -18, -12, 76, 45, 15, -47,
   -35, 127, 95, 59, -70, 126, 26, 0,
   127, 17, -88, 52, 20, -2, -27, 119,
   126, 123, 127, -128, -68, -19, 127, 75,
   -25, 98, -11, 21, 99, 102, -54, 127,
   33, 71, -10, 127, -10, 27, -72, 63,
   -4, 36, 19, 21, 117, 29, 42, 27,
   42, -47, 59, 19, -9, -42, -28, -53,
   -7, -34, 15, -49, -22, 43, 1, 61,
   -16, -47, 10, 63, -13, -46, -3, -5,
   -4, -54, -45, -117, 64, -85, 60, -25,
   -112, -9, 124, 31, -42, -43, -60, -78,
   -124, -84, -128, 127, 17, -17, -86, -115,
   -26, -62, 14, -13, 2, -48, 24, -68,
   -29, -16, -50, -35, -11, 6, -36, -37,
   3, -17, -19, -9, -45, -19, -25, -44,
   13, -25, 36, 15, 11, 21, -16, 15,
   -1, 46, 38, -30, -8, 21, -40, -7,
   2, 10, -59, 19, -40, -53, -10, 24,
   -2, 30, 85, 109, -10, 23, -78, 46,
   91, 48, -61, -32, 77, 81, 52, 64,
   127, 35, 127, -95, -67, -14, 112, 41,
   -32, 96, 40, 111, 127, 122, -94, -73,
   114, 29, -54, 112, -126, 110, -125, 127,
   116, 127, 103, 116, 127, 81, 116, 125,
   23, -127, -5, 78, -94, 57, 15, -112,
   -1, 74, -62, -125, 62, -104, -29, 15,
   89, 5, -38, 32, -31, 126, 38, -51,
   -84, 77, -18, 2, -76, 127, 127, -71,
   109, 127, 50, -106, 41, 126, 51, 127,
   18, 109, 109, -75, -125, 94, 120, 127,
   54, 78, -19, -31, 58, 37, -49, -50,
   -37, -52, -98, 85, 127, 23, 19, -9,
   -79, 3, -53, -50, 38, 23, -33, 10,
   -10, 21, -52, 40, 27, -52, 45, -92,
   46, 1, -122, 91, 14, 76, 4, -89,
   -29, 18, 97, 1, 116, -47, 23, -31,
   66, -98, -15, -43, 14, -127, 36, 124,
   -118, -93, 27, 13, 12, -90, 7, -116,
   -126, -92, -128, 125, 75, -73, -126, -122,
   -46, 78, 20, 1, 9, -23, -47, 30,
   11, 46, -86, -5, 40, 13, -78, 13,
   4, 32, -1, 7, -24, 77, 3, -6,
   42, -46, -3, -7, 3, -32, 16, -6,
   -12, 59, -31, -41, -3, 18, 30, -30,
   19, 11, 59, 10, -2, -19, 6, 54,
   -82, -23, 60, 22, 18, 53, 43, -36,
   127, -25, 47, 2, 78, -9, -15, 105,
   112, 69, 120, -100, -45, 1, 92, 96,
   -18, -121, 23, -29, -53, -127, 87, -16,
   -28, -46, 12, -126, 2, -8, -39, -15,
   -21, -114, -40, -36, -93, 10, -39, -75,
   -58, 18, -35, 9, 126, 6, 33, 37,
   8, 35, 54, 95, 23, 71, -21, -9,
   -28, 43, -43, -8, 30, 62, -38, -14,
   -68, 69, 44, 119, -62, 127, -41, 20,
   125, 52, 41, -40, -35, 127, -20, 71,
   125, 123, 127, -121, -92, 60, 127, 103,
   -96, 89, 11, 39, 19, 77, -16, 51,
   50, -122, -94, 99, -26, 127, -89, 110,
   23, 82, 54, 44, 127, 16, 59, 84,
   -19, -45, 103, 19, -42, -4, 32, -67,
   55, -51, 2, 127, 126, 18, -12, -124,
   -56, 26, -6, -16, -19, 45, -26, -11,
   30, -79, -117, -128, 71, -128, 102, 91,
   -128, -55, 103, 80, -6, -125, -98, -128,
   -124, -123, -128, 127, 54, -48, -128, -128,
   7, 51, -24, -51, -5, -10, 81, 66,
   -35, -26, 5, 19, -47, -52, 16, -3,
   -26, -75, -36, -68, 0, -25, -30, -71,
   74, 79, -28, -37, 87, 16, -35, 127,
   36, -30, 94, 28, -44, 74, 47, 16,
   30, -79, 3, -14, 29, 46, -41, -33,
   64, -68, -37, -97, 107, -113, 64, -15,
   -121, -70, 15, 30, -43, -128, -50, -81,
   -52, -122, -62, 127, 70, -38, -97, -100,
   -72, 17, 16, -4, -41, -22, -70, -28,
   9, -119, -13, -37, -39, 46, -66, -5,
   30, 7, 32, 20, -39, 64, 15, -28,
   -42, -63, 8, -1, -18, -49, -21, 19,
   35, 8, 88, -8, -17, 7, -6, 45,
   17, 12, 32, 15, 7, 15, 26, 30,
   -105, -121, -13, -123, 125, -56, 45, -38,
   -82, -68, 107, 93, 19, -86, -121, -62,
   -38, -5, -123, 92, 75, -92, -93, -88,
   3, -21, -3, -17, 22, -103, 11, -10,
   -34, 98, -93, -75, 47, -2, 41, 6,
   -15, -2, -40, -24, -71, 57, -20, -54,
   -105, -22, -54, 69, 17, -17, 48, -66,
   -9, 42, 7, -5, 23, 58, 2, -38,
   -1, 4, -37, -17, 18, -24, -7, 11,
   -9, -84, 125, 127, 40, 116, -2, -5,
   127, 84, 64, 7, 83, 71, -47, 127,
   126, 54, 127, -128, -90, 26, 127, 127,
   -120, -67, -56, 16, 7, -125, -12, -22,
   -41, 96, -94, -9, -33, 22, -57, -28,
   -32, -121, -55, -22, -63, 75, -36, -113,
   -7, 70, -50, 42, 23, -125, -18, -15,
   -55, -8, 38, -22, -60, 34, 23, 33,
   34, -57, 17, -26, 61, -128, 0, 21,
   -44, 10, 91, 127, -4, 127, -36, -70,
   127, -34, -91, 10, 52, 125, 113, 127,
   121, 74, 127, -128, -83, -15, 127, 127,
   -16, 6, -7, -5, 13, 2, -57, 5,
   -16, -12, -47, 39, 29, 0, -6, 5,
   -4, 56, -10, -7, 14, 59, -9, -17,
   10, -37, -2, 14, -23, -23, -62, -53,
   -28, 53, -57, -31, -19, 32, -23, -14,
   24, 19, 22, 2, 23, -12, -39, -11,
   -73, 41, 28, -8, -100, 10, 36, -77,
   4, -13, 38, -62, 32, 0, 106, -24,
   -58, -41, 3, -42, -37, 19, 17, -10,
   24, -16, 16, -5, -71, -54, -82, 34,
   -9, -27, -83, -88, -50, 18, 23, -19,
   -12, 14, -7, 0, -81, -13, -10, -9,
   -37, -30, 29, -14, -19, -60, -27, -51,
   -37, -57, -59, 68, 3, -42, -11, -25,
   24, -3, 21, 29, -3, 35, -7, 53,
   0, -62, -73, -107, -1, -74, -27, -1,
   -83, -16, 19, -4, -121, -128, 58, -41,
   -70, -124, -125, 127, -1, -2, -109, -41,
   -11, -10, 26, 19, -38, -84, -83, -50,
   5, 15, -11, -64, 90, 18, -30, 0,
   7, 14, -4, -1, -62, -28, 4, -41,
   -47, 29, -14, -27, 48, 22, -32, 7,
   39, 38, -24, 58, 4, 41, 40, 64,
   -12, 3, -9, 24, -29, 49, 28, -20,
   -62, 65, 108, 127, -13, 34, -43, 30,
   17, 118, 24, -19, 32, 118, 36, 70,
   79, 48, 75, -121, -4, -17, 53, 93,
   -34, -8, 2, -1, -14, 6, -58, 1,
   -4, 47, -1, 16, 21, 12, -43, -15,
   -10, 55, -4, 1, -29, 27, -4, -10,
   29, -20, -19, 22, -12, -8, -11, -31,
   8, 29, -33, 37, -52, -15, -25, -6,
   41, 16, -52, -7, -19, -30, -27, -28,
   -89, -49, -62, -15, -21, -43, 49, 83,
   -74, 1, -31, 1, -2, -122, 49, 13,
   -5, -9, -27, 28, 2, -12, 6, -52,
   -39, 10, 14, 12, 5, 32, -47, 3,
   26, -33, 38, 8, 14, 11, -20, 19,
   6, 3, 16, 16, 35, -75, 21, 33,
   -10, 32, -25, -4, 10, 35, 49, -14,
   41, 15, -108, 32, -64, -11, 1, -61,
   -47, -25, -24, 8, 37, 17, -14, 49,
   11, -65, 27, 31, -17, -66, -84, -22,
   -38, -10, -53, -36, 34, 77, -91, -16,
   -62, -37, -110, 25, 6, -27, -58, -38,
   -24, 60, -44, -6, 58, -4, 49, 83,
   -6, 61, 77, 27, -70, -35, -42, -4,
   4, -3, -5, -9, -8, -41, -3, -4,
   63, 91, 1, -10, 2, -44, 2, 112,
   -37, 13, 46, 62, -25, -34, 4, -7,
   -58, 3, -46, 31, -64, 36, 30, -26,
   106, 98, -15, -48, 65, -37, -18, -63,
   -90, 3, 32, 49, -19, -94, -126, -55,
   -80, -42, -34, 77, 71, -55, -37, -62,
   30, -52, -34, -43, -12, -23, 20, 86,
   -53, -9, -44, -121, 29, -43, 31, -72,
   -42, 19, -42, -35, -62, 11, -48, 41,
   -80, -19, 8, 34, 7, 20, 118, -9,
   -37, 32, -22, 60, 49, -7, -20, -50,
   -31, -17, -34, -88, -15, 4, 61, 19,
   -86, 56, -39, -80, -116, 28, -75, -32,
   -4, 87, -82, -115, -80, -62, 29, -23,
   -86, 54, -88, 51, -26, 113, -28, -86,
   4, 0, 3, -4, -21, 23, -59, -50,
   -9, -27, -11, 15, 46, 21, -78, -14,
   -8, 38, -8, -7, 11, 20, -6, -21,
   -8, -18, 24, 48, -78, 8, -3, -51,
   61, 17, -12, 2, -1, 36, -9, -44,
   -19, 20, -17, -2, -9, -19, -14, 4,
   -58, 23, 25, 8, 6, 9, -2, -55,
   -25, 40, -49, -35, -7, 7, 20, 5,
   5, 2, -61, -3, 49, 2, -63, -30,
   67, -10, -45, -39, -39, -14, 44, 76,
   -59, 60, 16, 14, -34, -37, 12, -66,
   -23, -43, -43, -45, -40, 4, -45, -47,
   119, -8, -49, -10, -7, 17, 3, 62,
   66, 15, 127, -111, -17, 49, 36, -32,
   17, 95, 23, 26, 46, 24, 6, -69,
   -34, -14, -39, -72, -31, 17, -41, -51,
   -18, 9, -26, 73, 2, -127, 32, -33,
   -35, -73, -2, 23, 4, -17, 10, -53
};

static const rnn_weight vad_gru2_bias[72] = {
   125, -55, -128, -128, -68, -128, 127, 17,
   -128, 76, -82, -93, -128, -128, 87, -128,
   -128, -128, -128, -128, -128, 20, -128, -128,
   43, 22, 2, -11, 53, -25, 13, 64,
   8, 47, 44, 16, 11, 28, 91, -15,
   1, -23, 1, -5, 32, 27, -40, -13,
   -22, 11, 9, 10, -20, 33, -21, -14,
   52, 17, -2, -10, 6, 33, 19, 28,
   -8, 26, 2, -21, -35, 19, 34, 35
};

static const GRULayer vad_gru2 = {
   vad_gru2_bias,
   vad_gru2_weights,
   vad_gru2_recurrent_weights,
   32, 24.0, ACTIVATION_TANH
};

static const rnn_weight noise_gru_weights[24192] = {
   25, -30, 18, -103, -10, 43, -59, -31,
   12, 8, -1, -79, -38, 72, 35, 26,
   -27, 17, 10, 15, -41, 55, -2, 31,
   31, 66, 34, -7, -29, -34, -43, -7,
   19, 36, 29, 24, -78, 28, -21, 44,
   -28, -13, 24, 32, 19, 17, -19, -8,
   -5, 13, -86, 88, 27, -18, 10, -35,
   8, -14, 17, 17, 11, 11, -38, 20,
   16, 14, 44, -23, -11, -25, 4, 4,
   -24, 15, 48, -40, 21, -3, 41, -11,
   -19, -30, 1, -33, -17, 0, -38, -14,
   -8, 5, -34, -62, -110, -16, 29, -19,
   20, 31, 7, -42, -13, -16, -11, 11,
   33, 30, 19, -34, 18, 7, 19, -48,
   19, 48, 1, 20, -14, -30, -7, -10,
   4, 17, -21, -13, -20, 22, 47, -35,
   -14, 20, 57, -20, 44, 7, 10, -55,
   14, 39, 24, -6, 0, -21, -1, 5,
   -43, -3, -24, -24, 19, 6, -24, 26,
   32, -49, 5, 5, -14, 5, -25, -23,
   -43, -38, 22, -10, 29, 30, 13, 1,
   -73, -14, 13, -15, 21, 22, 24, 46,
   34, -2, 12, 30, 23, -31, -2, -1,
   -11, 7, -8, 8, 74, -20, -25, -3,
   -18, -34, 52, -39, 28, -2, -38, -26,
   16, -32, -22, 13, -10, -20, -9, -51,
   33, -9, 25, -9, 19, -2, 41, 21,
   -11, -26, -16, -39, -3, 10, 15, -6,
   18, 8, -7, -42, 32, 0, 2, 9,
   28, -15, 4, -20, 24, 13, -44, 15,
   -22, -17, 56, -11, 26, 25, 37, 1,
   5, 35, -9, -13, -31, 49, -9, 13,
   59, -9, -29, 9, 34, 40, 31, 19,
   24, 23, 33, -11, 48, -14, 0, 26,
   30, -5, -16, -29, 26, 73, -34, -3,
   28, -27, -17, 4, 9, 9, 23, -24,
   7, -28, -15, 11, 8, 19, -16, 44,
   -15, 14, -18, 1, 3, 5, 13, 16,
   -3, -4, 84, -16, 55, 8, 13, 3,
   -15, 17, 39, -22, -4, 45, 4, 39,
   15, 40, 4, -5, 20, 8, 5, 28,
   -8, 51, 35, 35, 22, 25, 33, 26,
   1, -22, -4, -26, 47, 11, -42, -55,
   21, 31, -44, 21, 17, 8, -28, -53,
   42, -14, -27, -40, 22, -2, -32, 4,
   5, -11, -9, 44, 3, 26, 11, 15,
   -3, 42, 38, -34, 8, 50, 17, -30,
   57, -27, 5, 38, -28, 5, -20, 34,
   -18, 10, -3, -22, -11, 19, 69, -13,
   35, 10, -7, 2, 15, 29, 50, 8,
   56, 19, -23, -24, 29, 13, -18, -14,
   11, 57, 27, 4, -21, 10, -17, -23,
   29, 1, 12, 40, -10, 56, -12, 42,
   -7, -28, 25, 20, 0, 44, 24, 7,
   -25, 47, 24, 11, -31, -12, 2, -4,
   18, 9, 44, 23, -84, 17, 40, 19,
   40, -23, -53, 17, 35, -26, 23, -21,
   27, -12, -41, -52, 9, 1, -3, 20,
   102, 69, 18, -1, 8, -11, -28, 4,
   71, 86, 25, 15, 0, 4, -1, -73,
   4, -5, -61, -21, 52, -5, 8, 18,
   -38, 18, 70, 18, -74, 14, -19, 2,
   -34, 40, 49, -45, -32, 35, 66, 59,
   4, 13, -72, 3, 15, -27, -14, -14,
   -26, 47, 16, 4, -9, -37, 8, -29,
   71, 16, 50, 2, -101, -62, -54, 24,
   -18, 43, -45, -30, -36, -22, -7, 50,
   -4, 20, -50, 5, 5, 42, 4, 2,
   2, -11, -4, -53, 26, -35, 21, 39,
   -44, -18, 2, -4, 37, -49, 28, 17,
   -21, 27, 6, 6, 9, 46, 50, -19,
   40, -4, -33, -61, 33, -20, -24, -26,
   -43, -19, -47, 41, -6, 20, 27, -39,
   2, -18, 33, -59, 40, -22, -7, -47,
   16, -44, -12, 8, -69, -24, -45, -22,
   -10, 23, -49, -13, -19, -32, -21, -45,
   52, -28, 92, -8, -51, 107, -32, 11,
   -11, -44, -12, -5, 17, -24, 22, -23,
   15, 36, -8, -8, -6, -11, 27, -10,
   -6, 13, 15, 51, -57, -24, 24, -1,
   -11, 8, 56, 50, 15, -24, -44, 20,
   -13, -6, 14, 62, -4, 12, 19, -25,
   -49, -19, 0, -33, -58, 17, 3, 3,
   -47, -63, -15, 4, -21, -9, -10, -20,
   -16, 19, 29, 51, -13, -3, -13, 17,
   72, -43, -11, -22, 39, -16, 38, 54,
   11, 15, 9, 16, 13, -1, 5, 22,
   -38, -3, 3, -20, 27, 83, -7, 0,
   13, 33, -12, -36, -3, -30, 6, 30,
   -17, 40, -34, 10, 8, -26, 5, -13,
   -66, 27, 21, -24, 22, 32, -2, -2,
   -20, -32, -20, 34, 29, -12, -92, -26,
   -1, 9, 22, 100, 31, 30, 21, -8,
   22, 96, -6, 34, 2, 28, -34, -22,
   13, -1, -20, -8, -34, -40, -4, -23,
   9, 43, 54, -23, -101, 36, 5, 83,
   67, -36, 9, 59, -18, 20, -2, -66,
   3, -43, -10, -3, -34, 25, -18, -28,
   -43, 45, -54, 21, 34, 54, 10, 24,
   27, 7, -39, -41, 21, -15, -11, 19,
   -30, 13, -8, -47, 6, -23, 41, 55,
   -29, 57, 17, 23, 20, 0, 23, -15,
   24, 30, 10, 10, -39, 18, 26, 3,
   -10, 43, -9, 7, 12, -4, -9, 18,
   18, -2, 64, -20, 18, 6, -29, 16,
   2, 42, 7, -40, 14, 2, 14, 33,
   -1, -19, -25, 31, 28, -14, -32, 45,
   29, 29, -40, -22, 13, 35, -7, -14,
   31, 9, 66, 23, -4, 18, 24, -23,
   22, -76, 106, 52, -10, 18, -88, 21,
   -1, 43, 13, 23, -30, -16, -6, -86,
   13, -62, -8, 12, 3, 46, -24, 1,
   -31, 18, -43, 69, 39, -22, 4, 13,
   -14, -22, -5, -21, -29, 61, 28, 40,
   -26, 17, -42, -35, 14, 8, -5, -5,
   12, -21, -12, -9, -2, 2, -13, 44,
   -37, 29, 17, -1, 45, 11, 6, -26,
   -18, -69, -8, -60, 32, -21, 66, -10,
   -14, -13, -33, 38, 40, 36, -11, -53,
   -9, -6, -7, -23, 42, -29, -19, 71,
   -17, 8, -32, -40, 16, -50, 25, 13,
   -45, 28, 30, -15, -1, -14, -6, -49,
   -8, 4, 9, 8, 24, -19, -47, 31,
   -9, -24, 10, -6, -6, -16, 7, -5,
   -9, -14, -11, 37, 28, -16, -26, -3,
   -54, -19, -32, 19, 29, -14, 22, -1,
   31, -41, 31, -9, 87, -91, 19, -14,
   70, 35, 41, 30, -6, -36, -28, 19,
   -70, 17, -27, 4, -76, -17, -30, -47,
   -23, 4, -5, -12, 11, 42, 29, -114,
   -53, -29, 11, 6, 44, -19, -6, -8,
   -23, -6, -35, 28, -6, 4, 14, -7,
   -22, -34, 46, 74, 8, 3, 21, 2,
   -15, -55, 3, -4, -8, 6, 27, 34,
   -16, 13, 27, 6, -18, -12, 10, 15,
   -19, -12, -46, -12, 3, 14, 8, 2,
   -30, -6, 45, 28, 38, -96, -22, 1,
   -34, -17, 16, -23, -51, -38, -6, -43,
   10, -21, 16, 23, -18, 11, -19, -9,
   -61, -58, 7, -23, 13, -34, 35, 32,
   -13, 44, 49, 13, -11, -39, 19, -16,
   -17, -62, 24, -31, -7, 19, 6, 26,
   27, -21, -2, 19, 15, 28, 50, 24,
   24, -9, -52, -5, -4, -32, 23, -6,
   -36, 17, 1, 15, -27, 11, 49, 43,
   -33, 20, 3, -70, -32, -7, 11, -22,
   -11, 29, -18, 22, -10, 30, 29, 32,
   -12, 52, -1, -21, -31, 30, -20, 3,
   48, 27, -2, 69, 75, -43, 77, 20,
   -25, -33, -25, 25, 30, -15, 31, -48,
   9, 48, 25, 16, 19, -25, 12, -51,
   -46, -9, 24, -33, 20, 8, -5, 40,
   -89, -2, 72, -34, 16, 9, 48, -3,
   -41, 16, -59, 39, 14, -20, 10, -9,
   -34, -11, -32, 33, -28, 40, -19, 1,
   -15, -42, -12, -9, 0, -46, 10, -14,
   11, -8, 3, 30, -4, -6, 26, 26,
   15, -16, 3, 33, 0, 5, -26, -6,
   -43, -33, 33, 20, -9, 15, 11, 84,
   4, -6, 17, 65, -7, 14, -9, -3,
   22, -42, -5, -12, 21, 26, -33, 33,
   43, 4, 4, -5, -34, -31, 2, 8,
   57, -34, 32, -57, 19, 5, -11, 46,
   16, -104, -7, -50, -26, -13, -45, -27,
   4, -20, 32, 9, -13, -30, -18, -34,
   -43, 5, 15, 26, -73, 11, 34, 22,
   -42, 23, -17, -1, 11, 42, 50, -54,
   -7, -6, -35, -7, -5, -36, 43, 87,
   0, 10, 1, 13, 36, -15, 3, 20,
   -9, -4, -51, -109, 17, 14, -18, 55,
   72, -7, -35, 28, 20, 13, 39, 28,
   -19, 40, 13, 8, 15, -31, 32, 8,
   -24, 54, 4, -1, 32, 12, 49, -39,
   -20, 15, -55, -29, 47, -59, 19, -9,
   -29, 7, -7, 19, 19, 16, -15, -7,
   0, 5, -1, 14, 3, 1, 39, -9,
   2, 40, 29, 1, 55, -23, 3, 16,
   24, -9, -45, 34, 18, -4, 8, -47,
   -2, 12, -8, 3, 2, 20, 22, 22,
   40, 20, 11, 27, 28, -13, 3, 9,
   26, -23, 76, 91, 35, 28, 48, 74,
   -8, -51, -87, 86, 4, -61, -14, -12,
   -22, -14, 21, 58, -26, -28, -36, 37,
   -31, -34, -57, 30, -30, 4, 45, 67,
   -107, -28, -47, 11, 26, -26, 35, 17,
   -35, 41, 55, -28, -39, 40, 82, -37,
   -7, -91, 26, 10, 44, -18, -9, 81,
   41, -73, -22, 20, -19, 6, 77, 5,
   9, 53, -1, -7, -28, -31, -22, -59,
   -10, 70, 80, -24, -28, -24, 42, -50,
   -54, -22, 63, -99, 21, 20, 14, 34,
   1, 19, -47, 27, 12, -24, 8, 19,
   -13, -9, 28, -56, -75, -43, -4, 33,
   13, -4, 43, 12, 47, -3, 14, -7,
   -27, 20, 15, -11, -10, -29, -5, 31,
   -13, 8, -77, 18, -26, -14, -19, -67,
   7, 67, -34, -82, 19, 8, 36, -7,
   -4, 45, 72, -34, 31, -9, -19, 32,
   14, -50, 31, -52, -53, 5, 57, 28,
   -12, -73, -10, -21, 41, -12, -24, -18,
   -5, 54, -101, -53, 11, -42, 17, 5,
   -29, 40, 36, 2, 4, -64, -47, -3,
   8, -60, -41, 42, -21, 24, 59, -29,
   -30, 14, 46, 11, -39, 3, -43, -88,
   63, -18, -18, -30, 21, 5, 50, -12,
   18, -60, 37, -17, 17, 30, -25, 35,
   -21, 33, -33, 1, -21, 20, 18, -10,
   -22, -76, -21, 26, -3, -10, -7, -12,
   -55, 6, -7, 83, 50, -1, 18, 29,
   3, 34, -7, 4, 4, 30, 20, 55,
   6, -11, 6, 1, 58, -11, 7, 22,
   13, 25, -18, -31, 55, -10, -32, 29,
   36, -50, 45, -1, -24, -43, 8, -37,
   -28, 20, -17, -40, -24, 11, 7, 32,
   -17, 26, -43, 8, -11, 16, -42, 15,
   46, -29, -2, 10, 9, 14, 18, 37,
   46, -46, 9, -13, 10, -25, 87, -63,
   50, -41, -40, 73, -6, -31, -19, -35,
   -17, -16, 64, -20, -33, -5, -4, -38,
   -41, -80, 40, -3, -36, -10, -56, -15,
   -19, 7, 1, -18, -27, -26, -3, -37,
   -57, -27, 5, 8, 41, -28, 41, -90,
   -8, -42, 55, 10, -24, 41, -23, -11,
   32, 1, -14, 16, 12, 36, 5, 29,
   -63, -11, 16, 40, -1, 2, -7, 16,
   -53, -5, -1, 48, -16, -17, -8, -49,
   -38, 15, 76, 7, -89, 26, -11, 34,
   -38, 7, -29, 46, -78, 6, -1, 3,
   35, 31, -36, -36, -7, -25, -25, -32,
   -34, -32, 28, -39, -18, -23, 14, 33,
   -29, 23, 1, -19, 30, -12, -27, -5,
   -19, -20, -4, 34, -19, 19, 12, 48,
   3, 26, 40, -21, 11, -33, 0, -2,
   71, 13, -40, 10, -50, -2, -51, 18,
   9, 28, -29, -9, 22, -3, -82, -2,
   -7, 87, 37, 20, -20, -1, -11, -33,
   72, -3, -3, -48, -115, -40, 10, -4,
   -1, -47, -75, 36, 21, 1, -58, 35,
   -47, -19, -70, 15, -38, -33, -31, 50,
   63, 3, 44, -12, 7, 16, -42, -9,
   11, -30, 24, -9, 19, 3, -21, 5,
   -35, -6, 7, 55, -28, 24, 2, -9,
   -14, -5, 30, 3, -18, 32, 9, 10,
   -8, -38, -8, -3, 36, -20, 8, 14,
   55, -41, 77, 5, -34, -33, -13, -35,
   14, -13, -16, 15, 36, -4, -33, -13,
   43, 65, 12, -4, -54, 19, 4, -19,
   28, -7, 3, -83, -38, 24, -15, -13,
   13, -1, -23, 4, 16, -2, 35, -24,
   1, 58, -13, 16, 30, -8, -25, -31,
   -9, 9, -23, 47, 30, -45, 14, 11,
   29, 8, 40, 24, -18, -24, 30, -7,
   -1, 38, -30, -25, 3, 10, 8, 12,
   -11, 18, 60, 27, 7, 24, 19, 1,
   -34, -78, -12, 60, 114, -28, 17, -68,
   37, -94, -3, -15, 27, 2, 42, 24,
   14, 24, -38, -49, 13, -3, 57, -51,
   53, 23, 17, -41, -12, -13, -3, 124,
   22, 38, 82, 16, -11, 37, 74, 21,
   -31, 28, 18, -17, -21, 32, -59, 17,
   16, -23, -40, 13, -10, -14, -17, 126,
   -7, 12, -4, 44, 28, 3, 12, 2,
   53, 63, -21, -10, 14, 15, -34, -33,
   71, -45, -8, 17, 32, -6, -28, 16,
   -34, 13, 28, -30, 15, 0, 4, 24,
   6, 44, -14, 5, -15, 14, -36, 19,
   9, 45, 27, 0, -31, 19, -4, -13,
   15, 13, 51, 9, -16, -12, 1, -46,
   2, 34, 25, 22, 4, 91, 3, 12,
   -43, -8, 29, -36, 7, -3, 38, 14,
   3, 4, -35, -33, -54, -3, -33, 45,
   -9, -38, -29, 25, 37, -31, 20, 14,
   12, 30, -1, 27, 64, -3, -24, -43,
   42, -27, -21, 84, -5, -1, -84, 9,
   -52, -5, -6, -16, -66, -107, -31, -9,
   -27, 17, 29, -39, 31, 48, -21, 18,
   -23, -17, 21, 5, -38, -13, -61, 36,
   33, 1, -5, 66, -4, 18, 8, -7,
   42, 6, 25, 28, -27, -46, -16, 20,
   -21, 19, -33, -35, -91, 34, -9, 31,
   35, 5, 20, -33, 9, 38, 9, 59,
   67, -12, 32, 28, -15, 63, 14, 16,
   -9, 19, 22, -30, 10, 36, -12, 6,
   -31, 14, 48, 16, 9, -35, 27, -42,
   9, -19, -5, 2, 34, -29, -28, -24,
   18, -19, 10, -38, -16, 23, -25, 37,
   -9, 50, 48, -20, -19, 15, 7, -1,
   -27, 24, -17, -12, 24, -6, 16, 40,
   17, -41, 17, -19, -18, 58, 7, -36,
   10, -20, 16, -4, -16, -24, -78, 20,
   51, -2, -31, -34, 6, -1, -51, 59,
   6, 7, 13, 73, -16, -19, 10, -50,
   -4, 4, 10, -5, -28, -45, -72, -41,
   35, -26, 13, -8, 28, 5, 4, -5,
   8, -36, -19, 6, -51, -17, -32, 30,
   27, -27, -16, -100, 41, 44, 10, -16,
   50, 1, 0, -39, -29, -31, 12, 23,
   16, -25, 69, -33, 14, 21, -8, -17,
   -44, 39, -42, 30, -17, 36, 36, -11,
   -19, 41, 11, 38, -9, 0, -3, 54,
   5, 21, 25, 19, -9, 34, -28, 76,
   -27, 13, -19, 47, 63, 15, 1, 4,
   10, 5, 16, 61, 23, -15, -22, 9,
   -36, -9, 22, 8, -13, -10, -1, 16,
   2, -20, 29, 16, -33, -2, 20, 15,
   23, 5, 62, -10, 16, -13, 13, 15,
   -70, 2, 22, 54, 47, -31, 21, 1,
   3, 25, 37, 16, 5, 11, -11, 8,
   30, -101, 2, 0, 26, 13, 42, -42,
   10, -64, -100, -46, 11, 26, 99, -24,
   33, -13, 19, 0, 13, -5, -24, 29,
   14, 26, 4, 21, -34, 32, -8, 6,
   34, -16, -6, -33, -17, 3, 32, 85,
   -19, 21, 42, -4, 14, 31, 12, 7,
   36, 11, 44, 35, 25, 23, -1, -12,
   -14, -20, -36, 21, 9, -8, 4, 13,
   14, 16, 21, -40, 8, -84, 10, -6,
   16, 6, -15, -27, 60, -46, 26, -23,
   -9, 3, -45, -9, 21, -4, -43, 29,
   11, 38, 18, 9, -9, 35, 7, -14,
   57, -26, 13, 21, -9, -21, -38, -9,
   -30, 19, 7, -4, 27, 19, -19, -16,
   42, -37, 8, 2, -1, -21, -15, -9,
   -25, -3, -22, -32, -3, 20, 15, -1,
   20, 23, 32, 32, 15, -40, 51, -14,
   26, -43, -41, -73, -7, 9, -24, 19,
   14, -6, 21, -30, 32, 32, 13, -40,
   -1, 24, -18, -10, 25, 24, 26, -57,
   -73, -7, -57, -35, -49, 8, -48, -36,
   32, -3, -34, 13, 28, -48, -57, -49,
   -50, 54, -25, -34, 56, -13, 11, 15,
   6, -16, -18, -33, 1, 54, -8, -4,
   -47, 23, 35, -46, -1, -32, -8, -90,
   24, 21, -21, 4, -4, 6, 47, -24,
   -44, -90, 9, 21, -10, -4, 52, 4,
   -25, 50, 19, 50, -36, 17, -3, -49,
   -18, 19, 25, -4, 57, -57, 16, 28,
   -51, 4, 24, 6, -10, -16, -3, 18,
   13, -73, 44, -40, -34, 17, -30, -22,
   10, -25, 15, -18, -4, 8, -17, 33,
   -17, -10, 9, 8, -4, 19, -2, 9,
   -9, -16, -11, -28, 6, -29, -4, -13,
   6, -16, 29, -127, 61, -39, -49, 11,
   0, 18, -128, 68, -2, -11, -21, -33,
   -25, 21, 32, -3, -9, 1, 27, 22,
   24, -39, -12, -49, -1, -24, 40, 2,
   -54, 15, -9, -52, 43, -68, -2, 26,
   9, 25, 6, -43, -48, -30, -16, -105,
   -26, -45, 7, -26, -12, -4, 1, -66,
   -69, 38, 32, 5, -8, -31, 50, 36,
   -19, -41, 4, 14, 22, 52, -8, -41,
   -34, 25, 25, 13, 47, 14, 3, -42,
   -43, -2, 15, 11, -35, -1, -71, 34,
   -36, -44, 4, -4, -57, 25, -7, 36,
   -15, 39, 17, -11, -2, 11, 22, 18,
   -7, -5, -10, 20, 19, 13, 12, 61,
   -2, 49, 42, 32, 82, 7, 30, 5,
   42, -3, 12, -5, -8, -11, 14, -8,
   24, -60, -33, 24, 24, 49, 35, 8,
   -1, -6, -49, 28, 40, 16, -44, 30,
   0, 2, 45, 45, 62, -40, -15, -24,
   36, -39, 26, 30, -32, -50, -4, -40,
   -15, 49, 16, -20, -41, -56, -42, 63,
   -9, -23, 76, -16, 9, 13, -44, 76,
   15, 19, 0, -7, 20, -27, -48, 0,
   -70, 44, 46, -15, -47, 20, 3, -84,
   0, -60, 11, 38, 5, -1, 88, -8,
   7, 9, -17, -46, -7, -15, -48, -28,
   19, 5, -97, -25, 32, -9, -2, 11,
   -35, 38, -4, 18, -68, 83, 30, -28,
   -10, -11, -67, -21, -12, 14, -37, -12,
   -13, -18, 31, 70, 9, 39, -13, 47,
   -13, -8, 25, -28, 2, -3, 4, 2,
   38, -17, 20, 16, 5, 1, -31, -16,
   -31, -15, 3, 17, 24, -24, -67, 35,
   -6, 16, -15, -16, -43, 34, -5, -21,
   23, -6, 14, -13, -25, -10, -22, 11,
   -47, 3, 12, 48, 18, -12, -16, -31,
   -17, 17, 63, 17, 59, -5, -17, 80,
   -5, 38, -21, 23, -30, 24, 44, 31,
   50, -13, -4, -22, 0, 30, -12, 25,
   5, -63, -5, -12, -3, -44, 33, -21,
   -40, 31, -21, -25, -9, 28, -64, -31,
   70, 5, 32, 30, 17, 4, 12, -52,
   -21, -26, -46, -26, -7, 33, 53, 36,
   -52, 10, 11, 28, -22, 31, -2, 53,
   -25, -60, -3, -27, 0, -10, 73, -21,
   -23, 13, 5, -14, 58, -5, -2, -24,
   1, 30, 46, 22, 14, 44, -49, -42,
   49, -23, -6, -1, 25, 32, -12, 28,
   -69, -18, -34, -5, 16, -13, 23, -30,
   -27, -8, 12, -19, 28, -25, 1, 0,
   11, 30, -10, 44, -27, 37, -10, 42,
   13, 37, 54, -19, 8, -32, -2, -14,
   48, -15, 34, 3, 0, -7, 39, 16,
   -53, -33, -28, -3, 0, -19, 10, -30,
   -41, -24, -88, 65, 6, 10, -25, -9,
   -15, 39, -1, -23, -5, 35, -34, -38,
   28, 1, 42, 13, -21, -45, -6, -53,
   -13, -93, -23, 35, -33, 11, -93, 5,
   -30, -59, -39, 7, -1, -48, 53, 30,
   -17, -30, -46, 10, -20, 6, 22, -128,
   39, -21, -48, 0, -7, -14, -30, -15,
   15, -46, 12, -21, -6, -8, 21, -34,
   -4, 14, -60, 20, -10, -59, -62, 3,
   15, -46, 32, -19, -74, 2, -7, -3,
   -37, -88, -57, 4, 22, -11, 57, -41,
   -77, 54, -48, -31, -74, 33, 18, -7,
   -20, 1, 35, 12, -17, 2, -42, 5,
   19, -33, -19, 14, -13, -17, -28, 10,
   -12, -33, 28, 59, 4, -33, 40, -8,
   -18, -71, -17, 20, 22, -16, 8, -18,
   -44, -4, -27, -6, -8, -3, -11, -30,
   20, 6, -25, 27, 14, 66, -15, -35,
   -3, 62, -17, 79, 20, -85, -5, 24,
   4, -53, -13, 21, 1, -34, -118, 19,
   8, -31, 37, 1, -17, -20, -50, 33,
   -10, -5, -8, 24, -10, -40, -73, -36,
   20, -13, 29, 40, 2, 10, 9, -46,
   -41, 9, -47, 3, -29, 3, -45, 62,
   -8, 53, 21, 6, 43, 31, 60, -1,
   -59, 14, -22, 53, -24, -45, -52, -44,
   62, 40, 13, 46, 10, -29, -49, -28,
   12, 12, 17, -4, -22, -63, -3, 9,
   -53, 15, -20, -24, -31, -17, 53, -35,
   -19, -14, 44, -44, 20, -19, -20, -26,
   9, 43, 25, -12, -39, -27, -29, 4,
   -9, -1, 29, 24, -65, -32, -45, 8,
   25, 12, 14, -23, 14, 10, 49, -9,
   39, 36, -14, -2, 21, -20, 72, -49,
   -6, -21, -36, -56, -18, -62, 36, 0,
   -1, -25, 5, -19, -14, -36, -4, -32,
   19, 60, 18, 6, 10, -27, 27, -14,
   46, -72, 33, 29, 34, -17, -36, -43,
   -76, 12, -9, 96, 6, 27, 28, -47,
   25, -2, -29, -47, 65, 15, 13, 20,
   -112, 32, -8, 50, 10, -3, 13, 7,
   7, -13, 40, 21, 27, -85, -13, -89,
   4, -11, 5, -38, -3, 17, 82, -37,
   -18, 11, -30, -34, -14, 24, 36, -8,
   0, 5, 81, -11, -2, 52, 38, 3,
   -50, 44, -8, -30, 62, -43, 52, -28,
   -32, -41, 21, -3, -58, 19, 56, -13,
   -69, -13, -29, -29, -70, -36, 19, -43,
   -63, 35, -9, -33, 26, 14, 17, -10,
   35, -18, 9, -95, -21, -47, -12, 65,
   -63, 21, 91, 6, 23, 5, -40, 35,
   -23, -20, 81, -42, -6, 8, -4, 16,
   7, 29, -52, -8, -9, 22, -113, -53,
   5, 7, 0, -8, -37, 20, 28, 64,
   93, 107, -20, 7, 10, -46, 33, -58,
   -42, 43, 15, -70, -2, -30, 5, -43,
   -16, 31, 25, -7, 58, 26, 6, -14,
   -19, -5, -51, -6, -22, -34, -40, 4,
   78, 6, -6, 23, 23, 87, -12, -6,
   46, -43, 12, 1, -28, -18, -14, -18,
   -25, 9, -21, -20, 3, 10, -50, -39,
   -21, 22, 40, -28, -1, -41, 7, 24,
   -11, 42, 3, 35, 4, -2, -7, -58,
   9, 26, -9, -38, -24, -5, 7, -4,
   -15, 12, -2, -5, -3, 20, -23, -29,
   -59, 63, -2, 10, -13, -8, -43, 15,
   27, 19, 10, 38, 57, 24, 4, -24,
   -16, 60, -47, -17, 22, -6, -33, 14,
   -15, 32, -9, 2, 15, -7, 12, -46,
   -29, -20, -46, 12, -49, -9, -15, -15,
   -32, -12, 27, 15, -53, -4, -58, -29,
   23, 22, -35, -20, -6, 0, -66, -34,
   14, -72, -5, -9, -19, 24, 84, -9,
   -38, -60, 17, -11, 17, -7, -26, 10,
   35, 41, -26, -43, -31, 37, -12, -25,
   59, -46, 9, -16, -2, -8, -51, -45,
   -58, 4, -99, -34, -46, 52, 41, 16,
   -71, 26, -1, 1, -8, -14, -47, -11,
   -4, 15, -13, -5, -57, -32, 3, -4,
   2, -35, 25, -12, 22, -6, -72, -18,
   -31, 11, 14, 31, -7, -21, -61, 51,
   0, 13, -20, -47, 5, 24, 48, 0,
   2, -28, -25, 5, 11, 48, 5, 59,
   38, 10, 8, 12, -26, 7, -4, -19,
   3, 17, -42, -28, -12, 34, -46, -2,
   28, 32, 2, 7, 47, -38, -7, -26,
   -21, -86, 26, 3, 5, 15, -33, -48,
   45, 16, -26, -27, 45, -17, 31, 46,
   -39, 8, 20, 9, -23, -29, -9, 11,
   -12, -29, -6, -30, -17, -51, 23, 13,
   -17, 102, -1, 78, -20, -49, -127, -75,
   49, -42, 49, 6, 54, 27, -32, 49,
   35, 11, -28, -39, 35, 9, 9, 58,
   -17, 51, -4, 23, 13, 23, -53, -13,
   63, 89, 29, -111, -29, -43, -41, -103,
   -26, -34, 35, 9, 11, -43, 49, -67,
   20, -54, -23, 11, -13, 15, 15, 28,
   32, 86, -16, 3, -22, 2, -31, -30,
   39, -43, 40, -22, -45, -68, -23, 71,
   -75, 16, -25, 6, -2, 13, -14, 3,
   -13, 17, 23, -69, -21, 67, 19, -3,
   0, 21, -6, -12, 2, 7, 55, -13,
   -52, 35, 32, 19, -6, -2, 6, 9,
   54, -6, 37, -39, -47, -15, -43, -11,
   -29, -1, 97, 32, 7, -16, 12, -11,
   4, 10, -5, -60, 18, 34, -25, 19,
   -4, 8, 49, 27, -14, 22, 8, -110,
   70, -11, 57, 33, 14, -12, 14, 28,
   69, -52, 76, -36, 22, -28, 24, -75,
   29, 29, -35, 36, 33, 2, -68, -19,
   20, -4, 69, -48, -67, -35, -36, -13,
   -18, -85, 3, -42, -22, 40, 3, 9,
   56, -28, -3, -50, 72, -92, -18, 69,
   -30, -30, -24, -41, -45, -24, 15, 38,
   -70, -11, 23, 13, 46, 3, -17, 83,
   -37, -23, 14, -98, 24, -62, -31, -6,
   40, 73, -3, -41, 10, 74, -52, -30,
   19, 19, -52, 3, 3, 23, 33, -8,
   17, 62, -26, -63, 13, 45, -2, -26,
   18, -14, 50, -27, -5, 0, 1, -19,
   26, 2, 24, 37, 4, -13, -32, 23,
   -29, 5, 23, -30, 11, -39, -15, -79,
   27, -11, -48, 46, 28, -27, -12, 31,
   -65, 20, 5, -2, -62, -76, 11, -8,
   -8, 2, 38, 24, 4, 38, 29, 27,
   -30, -7, 12, 16, 9, 46, 49, -8,
   46, 25, -46, 104, -15, 77, 45, 80,
   -20, 52, -63, 64, 13, -5, 18, 48,
   23, -44, -17, 54, 5, 46, -4, 9,
   3, -61, 49, 10, 43, -6, -11, -10,
   -13, 70, 22, -31, -85, 40, 67, -22,
   -20, 34, -5, 15, 6, -49, -27, 28,
   94, -10, 35, -44, -33, 4, 54, 33,
   22, 62, -88, 14, -47, 62, 14, 14,
   -77, -33, -26, -23, -37, -12, 14, 53,
   -44, -27, 57, 4, 1, 14, -90, 24,
   15, -44, 14, -13, -41, 30, -10, 27,
   -29, -25, -31, 24, 51, 38, 0, -4,
   -85, 24, -14, -29, -27, 3, 30, 27,
   34, 41, 36, 33, 22, 1, -7, -12,
   -41, -37, -5, -31, 34, 21, 21, -21,
   -23, -12, 13, -21, -12, 22, -18, 23,
   -3, 1, -10, 6, 14, 21, -100, 64,
   7, -6, -28, -26, 7, 22, -3, 46,
   46, 43, 117, -24, 19, -18, -17, 12,
   3, 9, -121, 8, 71, 31, 46, 15,
   1, 56, 17, -27, 17, 58, -42, -20,
   9, 5, -63, -23, 11, -21, 31, 49,
   39, 30, 28, 50, 7, 14, -37, 40,
   0, -24, 11, 0, 26, 14, 48, 63,
   -20, 19, -61, 15, 23, 1, -14, -27,
   -31, 7, 5, -44, 19, 38, -6, 6,
   -4, -34, -9, 4, 42, -10, 4, -48,
   17, 47, -30, -13, 53, 8, -6, -3,
   -8, 3, 21, -7, -33, 8, -45, -36,
   -18, -40, 15, 13, 72, 45, -44, 34,
   20, 5, 12, -30, -21, 19, -50, 30,
   -1, 15, -15, -8, -1, -5, 9, -14,
   1, -12, -19, -40, -9, -31, -36, 23,
   -4, 21, 25, 53, -4, 18, 4, 15,
   25, 28, -40, 28, -18, 19, -21, 21,
   -26, -8, 40, 23, 7, -31, 14, -29,
   45, 1, 17, 40, 25, -55, -103, 32,
   21, -8, 73, 12, -15, -14, -40, 16,
   -62, 51, 33, 51, 18, 25, -23, -110,
   38, 61, -73, -24, 0, 5, 80, 29,
   20, -24, -60, 33, 60, -59, 92, -17,
   -10, 127, 43, -40, -43, -3, 61, 4,
   40, 9, -56, -4, 34, -13, 24, -65,
   -30, -19, -5, 7, -20, -52, 25, 54,
   17, -43, 45, -18, 12, 45, 29, -119,
   -20, -14, -63, -75, 65, -63, 53, -8,
   -26, -15, -34, 66, 6, -46, 10, 11,
   -107, 35, -26, 24, 24, -32, -23, -15,
   -73, 54, -16, 40, 47, -17, 10, -26,
   -56, -42, -5, -47, 5, 0, 36, 56,
   5, 23, 11, -48, -71, 11, -30, 32,
   -21, -79, 45, 28, -27, 12, -22, -15,
   -72, -29, 69, 22, 11, 11, -6, 2,
   -30, -29, -3, -24, -21, 6, 9, 44,
   26, -62, 18, 12, 112, -8, -1, 42,
   0, -3, 8, 17, -21, -27, -63, 6,
   -21, 111, 50, -19, 49, 33, -27, 15,
   -7, 53, -50, 48, -3, 7, 0, 26,
   -18, -19, -8, -20, -83, -43, -23, -75,
   -17, -117, -13, -25, 4, 47, -59, 15,
   -7, 9, 47, -67, 11, 23, 2, 53,
   9, 21, -50, -66, 4, -19, 63, 6,
   74, 64, -58, -10, -22, -31, -68, -79,
   -29, 33, -47, 16, 3, -52, -3, -15,
   47, 15, -12, 28, -18, 83, 40, -88,
   42, -38, -10, 28, 34, 3, 55, -17,
   54, -29, -62, 29, 32, -31, -3, 7,
   49, 89, 11, 16, -22, -7, 3, -39,
   10, -45, -69, 13, -23, 2, -16, -29,
   -51, 15, 10, -48, 0, -10, -11, -43,
   -32, 18, 4, -39, 48, 7, -35, 24,
   23, 1, 36, -34, -13, -6, 42, 36,
   -52, 30, 7, 27, 34, 1, 101, 30,
   61, 9, 53, -15, -27, -20, 26, -49,
   -6, 127, 37, 8, 65, 1, 23, 23,
   21, 61, -3, -10, -3, 36, -33, 7,
   -19, 18, 0, -19, -54, -3, 37, -62,
   2, 17, 16, -45, 40, 8, -41, -64,
   60, 16, -26, -2, -36, 15, 11, -5,
   -18, 27, -6, -36, 11, -24, 17, 23,
   -31, -42, 13, -40, 12, 11, -51, -17,
   10, -32, 5, 13, 19, -12, 30, 2,
   26, -24, 22, 4, 35, 9, -1, -16,
   -2, 19, 31, 27, 10, 18, 13, 7,
   80, 42, -3, 31, 30, 13, 52, -27,
   -23, 1, -32, 18, 33, -1, 23, 14,
   -35, 4, 10, -33, 43, -2, 38, 6,
   -13, -14, 14, -13, 16, 37, -19, -63,
   32, 2, 25, 37, 30, 11, -16, 14,
   3, 3, -41, 25, -39, 16, 50, 2,
   -54, 22, 45, 26, -20, 68, -13, -1,
   -4, -85, 23, 56, 66, 1, 79, -14,
   38, 5, -2, 28, 14, 26, 11, 72,
   2, 33, -24, -7, -29, 71, -51, -73,
   48, -36, 14, 3, -14, 3, 33, -15,
   28, -110, 43, 0, -17, -63, -43, 55,
   53, -39, 29, 25, -6, 43, -18, -42,
   60, -31, 53, 9, 49, -65, 62, 22,
   -69, -29, 29, 32, 53, -13, 33, 3,
   16, -14, -34, 53, 35, -52, 37, -37,
   -15, -16, -42, -5, -9, 36, 91, -39,
   -1, 80, -18, 27, -79, -60, 21, -51,
   12, -65, 28, 8, 62, -21, 49, -1,
   -22, -3, 16, -55, -68, -60, -47, -55,
   -14, -50, -21, 27, -14, 12, 4, -21,
   -9, 3, 16, -29, -13, 9, -48, 83,
   7, -53, 86, 40, -59, 7, 10, -30,
   -25, 4, 14, 41, -1, 0, -8, -38,
   8, 63, -13, -24, 6, -53, -64, -13,
   -5, 31, -28, -15, -15, -36, 14, 12,
   -15, -74, -15, -24, 17, 1, -18, 57,
   -1, -39, -1, 16, -38, -38, -8, -34,
   -74, 34, 4, -16, 13, -31, 1, 6,
   -8, -55, 13, 21, -8, -26, -4, 5,
   -5, 36, 41, -26, -9, -22, 12, -21,
   -4, -14, 4, 56, -35, 8, 37, 14,
   -34, -4, 29, 25, -49, -37, 58, -18,
   17, -14, -32, -32, -15, 32, 8, -22,
   -23, -32, 1, -17, 0, -39, -30, 7,
   20, 21, -28, -27, -10, 17, 3, 40,
   5, -40, 28, -43, -36, -6, 35, -50,
   7, -36, -17, 6, 4, -32, -10, 8,
   2, -2, 62, 15, -14, 5, -42, -46,
   8, -73, -13, -16, 34, 26, 22, 51,
   -11, -56, -36, 6, -6, -59, -30, -47,
   -57, 2, -24, -13, -9, -4, 4, 6,
   -66, 107, -24, 86, 23, 36, -4, -19,
   22, -1, 3, 1, 42, -65, 10, -4,
   13, 22, 10, 21, 33, 33, -9, 53,
   -46, -37, 89, 7, -26, 28, 93, 3,
   -30, 8, -80, -18, 61, -9, 18, -28,
   -4, -62, 5, 6, -22, 25, 44, -7,
   -13, -1, -26, -24, 6, 9, -10, 28,
   -43, 33, -35, -15, -36, 18, 39, -24,
   -21, 4, -30, -44, -12, 31, -35, -30,
   -29, -63, 30, -20, 13, 12, 16, -32,
   19, -31, -48, 12, 18, -35, -15, -13,
   -41, 20, -21, -7, 44, -36, 10, -40,
   -74, -15, 16, -24, 30, 4, 42, 47,
   21, -17, 20, -8, 4, -10, 2, -37,
   15, -43, 62, 17, -12, -15, -25, 32,
   -18, -21, -6, 27, 5, -16, -20, -17,
   2, -14, 17, 0, 26, -12, 51, 21,
   -34, -14, -33, 30, -13, 5, 10, -14,
   50, 70, 13, 39, 63, -2, -36, 22,
   50, 19, 43, -3, -25, 91, 24, 16,
   6, 53, 20, -14, 80, 70, 60, 2,
   33, 61, -74, 20, 53, 51, 35, -16,
   -38, -10, 26, 3, -27, -25, 27, -32,
   -24, 40, -15, 35, 38, 62, -59, 9,
   20, -14, -15, 0, 45, -9, 77, 47,
   19, 20, -50, -13, 25, 24, -54, 17,
   38, -39, 43, -20, 9, 50, 81, 3,
   -9, 94, -41, -10, 37, -12, 8, -8,
   -48, -7, 14, -23, -33, 24, 70, -64,
   -60, 32, 3, 15, -59, -25, 17, -43,
   -44, -6, 10, 40, 27, -56, 22, -2,
   -52, 62, 14, -41, 34, -1, 27, 45,
   -49, -11, 82, -48, 43, -13, 19, -14,
   -29, 46, 83, -44, -80, 2, -20, -43,
   -37, -41, -68, -37, -48, 71, -50, -20,
   35, -11, 22, 31, 6, -12, 3, 53,
   -29, -10, -21, 58, -12, 26, 25, -64,
   -17, -6, -46, -13, -44, -18, 23, 13,
   17, -50, 12, -6, 9, -22, 3, 23,
   17, -90, -67, -61, 7, 19, -51, -66,
   28, 2, -30, -57, 83, -17, 3, -25,
   -34, -33, 7, 51, 37, -23, 34, -15,
   -10, -34, 25, 17, -17, 10, -68, 34,
   -3, -18, -18, 1, -21, 12, -96, -10,
   -17, 56, 50, -54, -12, -38, -16, 94,
   -1, -15, 13, 14, -12, 7, 5, -25,
   8, 18, -12, -47, 21, -15, 10, -26,
   -1, -1, -17, 18, -40, -4, 26, -52,
   -19, 24, 10, -25, 17, -21, -42, -22,
   -24, -46, 44, 30, -17, -25, 17, -30,
   6, 6, 1, 6, -8, -40, -26, -19,
   -34, 8, 38, 18, 3, -36, -14, 20,
   -2, -21, -19, 40, -14, 6, -11, -18,
   -1, 12, 6, -4, 51, 5, -41, 7,
   0, -8, -7, 59, 23, 8, -30, 74,
   -84, 44, -29, -47, -9, 20, 19, 21,
   -107, -37, -5, -80, -3, -27, 9, 39,
   -11, 13, -49, -23, -30, -43, 47, 42,
   -53, 21, 32, 1, -33, 17, -21, 13,
   -57, 18, 31, -5, 6, 12, -15, -27,
   23, 1, 6, -46, 24, 18, 34, 20,
   -9, -29, 67, -16, -19, 61, -43, -20,
   30, -49, 12, -3, -22, -7, 31, 70,
   58, 23, 45, -57, -18, -19, 31, -19,
   -14, 15, -23, -43, -42, 7, 50, 40,
   -82, -47, 4, -23, -3, 42, -28, -10,
   -29, -6, 47, 3, 6, -2, 16, -5,
   34, 8, 43, -25, -8, 5, -24, 8,
   22, 31, -20, -43, -35, -2, 20, 1,
   -26, -35, 17, -16, -35, 9, -28, 41,
   -11, -2, -4, -29, 5, 54, 28, 47,
   15, -5, -2, 23, -32, 30, -21, -39,
   31, -61, 58, -28, 84, 9, -62, 61,
   61, 21, 48, -91, 59, 29, -97, -77,
   -104, -10, -17, 0, -47, 14, -12, -64,
   -31, -15, 48, 23, -13, 3, -38, 12,
   29, 49, -20, 36, -7, 36, -2, 32,
   5, 11, 23, -23, -23, 19, 88, -2,
   -79, -30, -26, -8, -40, -2, 49, 17,
   -27, -27, 4, 48, 5, 41, -11, 16,
   -24, 44, -42, -28, -38, -2, 25, 27,
   50, -118, -5, 3, -26, 7, 62, -6,
   27, -62, 18, -79, 61, 15, 12, -9,
   49, -9, -15, 51, 10, -55, 30, -2,
   -30, 16, 3, 65, -9, 83, -64, 20,
   41, -20, -52, 38, -26, 22, 18, 50,
   -27, -15, -3, 38, 44, 99, 47, 35,
   123, 70, -20, 9, -50, -43, 36, -55,
   -4, -3, 26, 45, 49, 36, 14, 2,
   -2, -40, 30, -12, 33, -5, 5, -13,
   -9, -29, 70, -28, 12, -27, 15, -17,
   -26, -8, 8, -20, 0, 43, 21, -51,
   13, 3, -24, 22, 17, 4, -29, -66,
   -18, 39, -38, 57, -39, -23, -62, 26,
   -28, 25, 5, 1, -15, 48, -34, 31,
   22, -16, 32, -40, 32, -37, -44, -7,
   1, 23, -27, -49, -19, 5, 10, -26,
   14, -28, 8, 7, -7, 2, -15, -5,
   -64, -26, -16, 15, 51, 3, -8, 28,
   -16, 15, -28, 3, -31, -30, -23, -20,
   -33, -13, 24, 34, 23, -1, 0, -39,
   35, -50, -32, -19, 30, 28, -18, 21,
   16, -65, -34, -42, -50, 10, -18, 36,
   31, 31, -30, 11, 36, 8, 5, 3,
   -42, -55, -24, -37, 10, -37, 7, 38,
   -13, 22, 33, 19, -11, 35, 15, -6,
   21, 32, -24, 2, 19, 1, 20, -25,
   -18, -11, -12, -7, -37, -22, 7, -35,
   11, 22, 48, 36, 8, -22, -21, -20,
   1, -14, 20, 43, 3, 7, -17, -31,
   -45, 12, 3, -41, 13, 1, -44, -48,
   -31, -33, -21, -8, -44, 0, 10, -59,
   -11, -12, -7, -46, 23, -16, 12, -8,
   -59, -47, -26, 10, -30, -45, -10, -5,
   -9, -25, -24, 9, 2, 12, 50, 27,
   24, 9, 15, 52, 41, 13, -41, 8,
   -59, 14, 21, -28, 11, 45, 10, -35,
   14, -21, -1, 23, -4, -40, 49, -10,
   -9, -13, -32, 20, 12, 7, 28, -30,
   -53, -5, 4, -22, -15, -22, 22, -47,
   -38, -59, -12, 19, -5, -46, -20, -23,
   -12, -2, 33, -10, 4, -6, -22, 24,
   -5, 13, 29, 26, -27, -26, -14, -12,
   57, 0, 28, 15, -20, 26, -21, 4,
   11, -39, 18, 13, -5, -25, 34, -76,
   -16, -28, 20, -10, 0, 12, 18, -1,
   -16, 36, -5, 64, 25, -36, -22, 72,
   -17, 20, 32, -31, 26, -27, 5, 15,
   34, -49, -46, 13, 73, 15, 64, 21,
   52, 30, -51, -1, 36, 51, -10, 33,
   86, -2, 0, 52, 72, 38, 28, 33,
   -3, -15, 11, -37, 46, 25, 30, 38,
   40, 25, 10, -13, -20, -19, 11, 24,
   -8, 53, 33, 94, -8, 20, -12, -16,
   -14, -32, 92, 41, -4, -13, 11, 68,
   -11, 18, -29, 19, 96, 6, -21, 26,
   27, 2, 6, -20, -20, -78, 32, -31,
   2, -68, 0, -49, -50, -42, -2, -27,
   -83, 34, -26, 43, 1, -33, -13, -21,
   22, 4, -1, -25, -38, -30, -4, 2,
   6, 26, 59, -20, -42, 32, -6, -3,
   -66, 22, 14, -15, -28, 20, -9, 1,
   -7, -55, -9, -7, -14, 36, -7, -3,
   -8, 5, 15, 26, 32, 12, 34, 37,
   7, 1, 61, -30, 42, 21, 3, 62,
   1, 90, -4, -22, -28, -8, -11, 34,
   -4, -33, -30, 29, -31, -45, -29, -50,
   -20, 23, -40, 5, -39, -45, -44, 19,
   -34, 43, 31, -6, 34, 11, -19, -8,
   -19, -1, 2, 10, -50, -61, -40, -37,
   -28, 16, 4, 4, -14, -7, 4, -71,
   25, -19, 17, 16, -7, -12, 18, 0,
   -12, 21, -18, 0, 37, -51, -50, -41,
   15, -9, -5, -24, 6, -16, -1, -11,
   -17, -16, 16, 3, -22, 4, -17, -23,
   -22, -1, -7, -11, 1, -7, 3, 10,
   2, 12, -3, 18, -59, 18, 17, -11,
   -6, -19, -19, -11, 12, -39, -9, -33,
   -50, -1, 9, 19, -18, -35, 16, -2,
   -11, -30, 10, -26, 1, -32, 0, 18,
   4, 31, 31, -15, 18, -65, 11, 8,
   -11, 19, 28, -28, -9, -18, -8, 5,
   -108, -30, 39, 10, -21, 77, 3, -11,
   -22, 17, 18, -13, -13, 18, 2, 38,
   37, -36, 57, -35, 104, -17, 2, 11,
   3, 9, -8, -1, 41, -18, 34, 42,
   -128, 26, -5, -24, -11, -12, 0, -45,
   20, -1, -22, 52, 27, 36, -32, -17,
   39, 11, 40, -23, -31, -55, 30, -37,
   3, -19, 6, -19, -11, 11, 19, -42,
   3, -41, -17, 25, -57, 17, -9, 51,
   33, 5, -14, 29, -28, 8, -10, 29,
   37, 8, -19, 38, 11, -70, 10, 18,
   -7, 9, 3, 49, -24, 45, 56, 1,
   21, 4, -13, -29, 14, 42, -25, 18,
   -6, -54, 49, 29, 3, -43, -15, -16,
   -25, -22, 31, 10, 27, 30, -22, -6,
   6, -61, 24, 18, 45, -8, 44, 29,
   36, 47, 8, -19, 24, 11, -9, -29,
   3, 35, -78, -26, 44, 29, 6, 36,
   -43, -1, -32, 19, -60, 26, -31, -11,
   -23, 68, 4, 27, 34, 12, -32, 7,
   -29, -28, 15, 37, 7, 2, 21, 30,
   -9, 8, 14, -6, -21, 5, 84, 56,
   58, 21, -10, 0, 63, -51, 29, 22,
   68, 0, -56, -23, -29, 52, 50, -5,
   -4, -1, -27, -28, -43, 6, 17, 23,
   3, 25, -16, 0, -6, -40, -28, -29,
   22, 38, 32, 57, -11, 1, 6, 4,
   32, 15, 5, -7, -41, 11, 29, 23,
   13, -1, -9, -5, 52, -48, 12, 6,
   1, -3, -13, 19, 75, -35, 16, 14,
   8, 38, -24, 66, 75, -26, -12, -4,
   32, 34, -31, 8, -32, -23, -37, 5,
   7, 43, 2, 46, -46, 28, -19, -13,
   -45, 40, 13, 26, 7, 20, -7, -12,
   -19, 27, -4, -21, -28, 38, -18, -21,
   12, 19, 53, -26, 24, -13, -15, -69,
   -51, 36, -27, 82, 12, 25, -28, -15,
   64, -20, 19, 38, 6, 17, 65, -35,
   -17, 33, 0, 65, 39, 43, 43, 32,
   -33, 49, 29, -26, -9, 2, 60, 30,
   51, 12, -16, 2, -11, 60, -47, -10,
   24, -106, 7, 49, 21, 20, 65, -34,
   58, 55, -25, 10, 27, 22, 22, -11,
   0, 10, -7, -6, 0, 127, 16, 58,
   -30, -64, 13, 2, -47, -17, 47, 35,
   -23, -12, 29, -33, -6, 39, 11, 6,
   -26, -1, -12, 94, 23, -53, -43, 17,
   42, 22, -2, 40, -44, 0, -11, 25,
   17, -22, 24, -2, 22, 11, 15, -23,
   -8, 14, -56, 19, 0, 11, 48, 77,
   -43, 80, 84, -2, 32, -39, 24, -6,
   -9, 18, -36, -9, 2, -18, -14, -8,
   -8, -13, -39, -12, 19, 2, -44, 18,
   5, -11, -26, -23, 4, -8, -6, -43,
   -38, 33, -22, 1, 31, 1, -21, -32,
   21, -84, 34, -8, 124, -1, -14, -33,
   -8, 14, -33, 44, -65, -2, 23, -18,
   -18, -13, -27, 7, 31, 44, 3, 27,
   -67, 52, 40, -5, 5, 14, 1, 7,
   58, 95, 84, 61, 2, -49, 29, 2,
   19, -63, 1, -5, -5, 30, -39, 34,
   26, -24, 39, -11, 39, -21, -19, -1,
   -2, 76, 0, 31, 39, 61, 19, -47,
   -23, -24, 4, -9, 2, -34, 50, -41,
   3, 28, 47, -60, 37, 29, 27, -11,
   73, -3, 6, 7, -58, -67, -14, -36,
   -3, -23, -19, -18, 33, -33, -8, -20,
   -14, 1, 35, -63, 13, 15, -16, 9,
   2, -42, -13, 19, 37, 35, 0, 40,
   24, 66, 48, -1, 11, 16, -31, 6,
   -4, 37, -16, 23, -38, 24, -11, 64,
   -7, 21, 21, -22, 18, -27, 11, 36,
   -95, -15, 110, 80, -12, 63, -17, 32,
   32, -31, 28, -48, -45, 52, -79, 69,
   -32, -23, -16, -48, 79, 13, 42, 60,
   7, -20, -3, -17, 23, 47, -34, -33,
   47, -36, -29, -57, -6, 12, 24, -28,
   18, -24, -70, -9, 70, -1, -24, -32,
   39, 48, 13, -29, -1, -32, 37, 36,
   -10, 30, -80, -16, -48, 34, 53, -28,
   -7, -39, -7, -59, -47, -18, -22, 33,
   -9, -37, 43, 15, -61, -11, -53, 15,
   30, 6, 0, 16, 11, -29, 57, 11,
   -24, 26, 28, 34, 1, -7, 68, -44,
   0, -2, -35, 15, -5, -41, 18, 11,
   12, 6, -27, 0, 14, 19, 18, -30,
   -14, -1, 24, -19, 10, -13, -7, 10,
   -76, -6, -4, 1, -14, -35, -41, -18,
   -2, -28, -46, -18, 21, 14, -21, 4,
   19, -33, -37, 16, 17, -11, 11, 41,
   15, 12, -41, 3, -55, 12, -1, -88,
   -46, -5, -51, 103, 62, -40, -42, -50,
   4, -22, 8, -8, -37, 50, 21, -16,
   9, -100, -67, -5, 76, 86, 22, 9,
   125, -52, -41, 38, 87, -10, -1, 42,
   74, -61, 38, -25, -62, -5, 10, 52,
   -24, -12, 25, 22, 26, -11, -73, 21,
   34, -51, 93, 8, 21, -128, 3, 20,
   107, 49, 38, -8, 26, 2, -53, -55,
   60, 99, -73, 56, -27, -66, 65, -20,
   0, 69, -9, -86, 12, 53, 38, 21,
   35, -37, 28, -4, 11, -25, 26, -11,
   27, -20, 75, 54, -36, -28, -39, 9,
   9, -23, 76, -44, 19, 30, -10, -48,
   39, 11, -38, -9, 8, -26, -54, 27,
   -23, 104, -19, 21, -17, 31, 52, 60,
   -33, 14, -25, -41, 18, 112, -12, 40,
   -19, -36, 108, 21, 56, 36, -13, -27,
   0, 47, -12, 39, 55, 3, -56, 8,
   27, -17, -21, -2, 28, -1, -8, -16,
   -73, 30, 13, 42, 2, 16, 14, 8,
   -8, 15, -24, 20, 50, 24, 74, 74,
   20, 6, 38, 25, -39, 17, 37, -14,
   12, -25, 31, -5, 32, 8, 14, 21,
   28, 25, -17, 8, -2, 16, -41, 4,
   22, -25, -6, 30, -10, 22, -24, -6,
   -14, -31, 14, 17, 26, 21, 21, -46,
   -19, -4, -17, 13, 27, -14, 4, -11,
   30, -7, 1, -30, -9, -19, 29, -32,
   36, 10, -10, -5, 21, -15, -14, 9,
   17, 12, 23, 1, 24, -27, 50, -38,
   -12, 40, 16, -26, 25, 31, 1, -12,
   9, 59, -25, 5, 17, 12, -17, -26,
   -21, 10, 14, 14, -3, 23, 17, -37,
   23, 15, 14, -9, 27, 32, -43, 22,
   4, 29, 12, 4, 23, -23, -5, -27,
   -15, 0, -45, 49, 74, 4, -59, 60,
   47, -35, 45, 17, -5, 2, 1, -20,
   -97, -65, 7, -6, 22, 6, -13, -46,
   30, 38, 22, -37, -3, 14, 112, -8,
   -103, -59, -19, 37, -9, 45, -18, 21,
   42, 50, -4, -5, 40, 21, 50, -24,
   22, 14, -16, 28, 11, -13, 9, 55,
   -13, -25, -2, 32, -31, 66, 45, 1,
   9, 32, 34, -30, 28, -9, 9, 43,
   -23, -24, 51, 9, 40, 20, 3, -13,
   29, 2, -43, -32, 23, 0, 17, -17,
   -7, 3, -43, -27, 28, -58, -4, -31,
   -42, -1, 15, 15, -12, -22, 32, 10,
   1, -58, -8, 20, 20, -47, 29, -29,
   25, 22, -4, 6, 0, 16, 14, 10,
   9, -7, 16, -11, -26, -17, -27, -70,
   51, 0, 30, 19, 13, 22, 20, 19,
   4, 22, 33, 29, 32, -8, 28, -7,
   10, 8, -21, 41, -28, -28, -70, -31,
   49, 11, -67, 41, 2, 21, -8, -7,
   52, 19, -41, -38, -59, 24, 19, 25,
   -2, 1, 74, 18, -23, 56, 127, 60,
   30, 57, 43, -7, 9, -34, -7, 24,
   31, -92, 7, 1, 21, -14, -1, -90,
   32, 48, -5, 5, 45, -11, 23, 26,
   3, 9, -40, -65, -41, 99, -24, -5,
   -1, -23, 27, -35, -59, 1, 42, 78,
   17, 34, 15, -37, -74, 37, -34, 4,
   -11, 13, -61, 19, 7, -19, -32, 2,
   44, 18, 5, 28, 9, -12, 15, 71,
   42, -35, 39, -45, -24, -30, 54, -18,
   -18, -21, -49, -18, -7, -12, 14, 32,
   23, 70, 18, -15, 19, -1, 37, 39,
   -1, -21, 30, -12, 2, 10, -18, -30,
   -12, -45, -21, 63, 5, 2, -30, 10,
   -42, -1, -45, -27, 11, 12, 7, 39,
   -48, -4, 16, 29, 30, -25, 127, -81,
   48, -19, -1, 27, 15, 2, -52, 28,
   13, 22, -3, 72, -24, 7, 15, -40,
   -35, 95, 29, -2, -4, 14, -49, 70,
   7, 13, 52, 27, -7, -28, 17, -23,
   19, 12, 18, 108, 46, -12, -2, -11,
   15, 53, -1, -15, 2, 3, 62, 54,
   -5, 1, 4, -40, -25, 114, 62, 72,
   36, -17, 46, -6, -10, 32, 50, -34,
   -14, -30, 35, 25, -9, -8, -5, -6,
   58, -49, 27, -7, 0, -2, 25, 26,
   65, -7, -14, 25, -31, -33, -30, 58,
   0, 17, -41, -15, 10, 33, 49, -12,
   -4, 5, -14, -11, -27, -8, -1, 17,
   17, -40, 46, 26, -2, -46, -11, 86,
   -21, 13, 34, 6, -14, 25, 12, -55,
   24, 21, -10, 13, -2, -42, -3, 18,
   26, -7, 27, 9, -11, -9, 24, 40,
   35, 0, -39, -30, -35, -28, 10, 15,
   -38, 22, 68, -95, -33, 13, -11, -33,
   -18, 28, -22, -5, -4, -21, 22, -68,
   43, -29, -20, -15, 22, -31, -47, -33,
   -24, -58, 90, -11, -4, 48, 19, 33,
   10, -16, -18, 58, 23, -26, -25, 49,
   -58, -2, -28, -13, -6, -33, 12, -22,
   -12, -14, 14, 0, 0, -22, -54, 24,
   10, 49, 29, -7, -12, -7, -75, -24,
   -7, -58, -78, -39, -49, -34, -18, 14,
   -37, 24, 30, 2, 12, 4, -29, 12,
   36, -15, -3, 3, 5, -10, 19, 8,
   26, -24, -28, 49, -28, 79, -16, -9,
   32, 38, 6, 31, 24, 57, 11, -40,
   14, 1, -1, 53, -10, 32, 20, -19,
   -17, 19, -20, 22, 8, -25, 2, 23,
   11, 47, -31, -33, 0, 0, 5, 5,
   -13, 0, -22, -46, 49, 12, 29, -27,
   14, -16, -7, -12, 40, 26, -10, 3,
   -13, 17, -76, 7, 0, 4, -7, -25,
   2, 4, 24, -18, -21, 6, -2, 7,
   12, -12, -9, 9, 13, 3, 7, 3,
   23, 8, -27, 23, -4, 17, 1, -10,
   -10, 23, -28, 0, -30, 14, -19, -17,
   0, 12, -11, -25, -2, 24, -8, 18,
   18, 25, -3, 20, -27, -34, -19, 13,
   -29, 5, 5, -11, -20, -20, -8, -9,
   -10, -26, 20, 11, -1, 9, -9, 7,
   6, 10, -19, 9, 16, -22, 11, 13,
   16, 42, -23, -33, 18, -5, -28, 34,
   22, 11, -24, 12, 14, 23, -17, 29,
   0, 16, 22, -18, 31, -12, -23, -20,
   5, 21, -14, 0, -21, -6, -20, 1,
   2, -19, 1, -16, -4, -39, -21, 42,
   -5, -28, 1, -24, 19, 3, -19, 1,
   13, -24, 24, -22, -5, -34, 14, -8,
   -8, 4, 15, -19, -45, 7, -5, 14,
   2, 11, 29, -20, 6, -6, -11, -5,
   22, 23, 9, 7, -10, 14, 6, -8,
   24, 29, 4, 2, 5, 9, 15, 4,
   10, -11, -13, -1, 12, 7, -4, 13,
   -29, 3, 48, 10, 11, -11, -6, -4,
   -3, 27, -10, -7, -42, 4, -73, -3,
   -23, -34, -30, 22, -1, -6, -11, -39,
   -28, -6, 52, 59, 14, -14, 22, 43,
   -1, -21, 6, 16, 24, 12, 13, 5,
   -2, -23, 7, 47, -27, 13, -9, -29,
   -59, 20, 7, 0, 0, 5, 18, 13,
   18, 23, -28, 8, -12, -16, -21, 22,
   3, 18, -24, -7, -15, 3, 0, -17,
   -4, 1, -33, -3, 29, 21, 10, -13,
   -2, -5, -23, 22, 10, -5, -10, 11,
   -19, -19, 4, -6, 29, -19, 23, 11,
   31, -13, -6, 10, -1, -2, -38, -7,
   -5, -17, -34, 8, -16, 26, 1, -21,
   -9, 39, -12, 1, 27, 10, -6, -7,
   15, 4, -43, 17, -23, 3, -6, -18,
   14, 6, -1, 16, 4, -15, -22, -30,
   3, -16, 27, 30, 15, 2, 15, 7,
   11, -9, 17, -5, 18, 35, -27, 14,
   -11, 6, 22, 0, -1, 1, 70, -20,
   27, 46, -2, 15, 13, -26, 28, -4,
